FANN_FLO_2.1
num_layers=3
learning_rate=0.700000
connection_rate=1.000000
network_type=0
learning_momentum=0.000000
training_algorithm=2
train_error_function=1
train_stop_function=0
cascade_output_change_fraction=0.010000
quickprop_decay=-0.000100
quickprop_mu=1.750000
rprop_increase_factor=1.200000
rprop_decrease_factor=0.500000
rprop_delta_min=0.000000
rprop_delta_max=50.000000
rprop_delta_zero=0.100000
cascade_output_stagnation_epochs=12
cascade_candidate_change_fraction=0.010000
cascade_candidate_stagnation_epochs=12
cascade_max_out_epochs=150
cascade_min_out_epochs=50
cascade_max_cand_epochs=150
cascade_min_cand_epochs=50
cascade_num_candidate_groups=2
bit_fail_limit=3.49999994039535520000e-001
cascade_candidate_limit=1.00000000000000000000e+003
cascade_weight_multiplier=4.00000005960464480000e-001
cascade_activation_functions_count=10
cascade_activation_functions=3 5 7 8 10 11 14 15 16 17 
cascade_activation_steepnesses_count=4
cascade_activation_steepnesses=2.50000000000000000000e-001 5.00000000000000000000e-001 7.50000000000000000000e-001 1.00000000000000000000e+000 
layer_sizes=842 31 2 
scale_included=0
neurons (num_inputs, activation_function, activation_steepness)=(0, 0, 0.00000000000000000000e+000) (0, 0, 0.00000000000000000000e+000) (0, 0, 0.00000000000000000000e+000) (0, 0, 0.00000000000000000000e+000) (0, 0, 0.00000000000000000000e+000) (0, 0, 0.00000000000000000000e+000) (0, 0, 0.00000000000000000000e+000) (0, 0, 0.00000000000000000000e+000) (0, 0, 0.00000000000000000000e+000) (0, 0, 0.00000000000000000000e+000) (0, 0, 0.00000000000000000000e+000) (0, 0, 0.00000000000000000000e+000) (0, 0, 0.00000000000000000000e+000) (0, 0, 0.00000000000000000000e+000) (0, 0, 0.00000000000000000000e+000) (0, 0, 0.00000000000000000000e+000) (0, 0, 0.00000000000000000000e+000) (0, 0, 0.00000000000000000000e+000) (0, 0, 0.00000000000000000000e+000) (0, 0, 0.00000000000000000000e+000) (0, 0, 0.00000000000000000000e+000) (0, 0, 0.00000000000000000000e+000) (0, 0, 0.00000000000000000000e+000) (0, 0, 0.00000000000000000000e+000) (0, 0, 0.00000000000000000000e+000) (0, 0, 0.00000000000000000000e+000) (0, 0, 0.00000000000000000000e+000) (0, 0, 0.00000000000000000000e+000) (0, 0, 0.00000000000000000000e+000) (0, 0, 0.00000000000000000000e+000) (0, 0, 0.00000000000000000000e+000) (0, 0, 0.00000000000000000000e+000) (0, 0, 0.00000000000000000000e+000) (0, 0, 0.00000000000000000000e+000) (0, 0, 0.00000000000000000000e+000) (0, 0, 0.00000000000000000000e+000) (0, 0, 0.00000000000000000000e+000) (0, 0, 0.00000000000000000000e+000) (0, 0, 0.00000000000000000000e+000) (0, 0, 0.00000000000000000000e+000) (0, 0, 0.00000000000000000000e+000) (0, 0, 0.00000000000000000000e+000) (0, 0, 0.00000000000000000000e+000) (0, 0, 0.00000000000000000000e+000) (0, 0, 0.00000000000000000000e+000) (0, 0, 0.00000000000000000000e+000) (0, 0, 0.00000000000000000000e+000) (0, 0, 0.00000000000000000000e+000) (0, 0, 0.00000000000000000000e+000) (0, 0, 0.00000000000000000000e+000) (0, 0, 0.00000000000000000000e+000) (0, 0, 0.00000000000000000000e+000) (0, 0, 0.00000000000000000000e+000) (0, 0, 0.00000000000000000000e+000) (0, 0, 0.00000000000000000000e+000) (0, 0, 0.00000000000000000000e+000) (0, 0, 0.00000000000000000000e+000) (0, 0, 0.00000000000000000000e+000) (0, 0, 0.00000000000000000000e+000) (0, 0, 0.00000000000000000000e+000) (0, 0, 0.00000000000000000000e+000) (0, 0, 0.00000000000000000000e+000) (0, 0, 0.00000000000000000000e+000) (0, 0, 0.00000000000000000000e+000) (0, 0, 0.00000000000000000000e+000) (0, 0, 0.00000000000000000000e+000) (0, 0, 0.00000000000000000000e+000) (0, 0, 0.00000000000000000000e+000) (0, 0, 0.00000000000000000000e+000) (0, 0, 0.00000000000000000000e+000) (0, 0, 0.00000000000000000000e+000) (0, 0, 0.00000000000000000000e+000) (0, 0, 0.00000000000000000000e+000) (0, 0, 0.00000000000000000000e+000) (0, 0, 0.00000000000000000000e+000) (0, 0, 0.00000000000000000000e+000) (0, 0, 0.00000000000000000000e+000) (0, 0, 0.00000000000000000000e+000) (0, 0, 0.00000000000000000000e+000) (0, 0, 0.00000000000000000000e+000) (0, 0, 0.00000000000000000000e+000) (0, 0, 0.00000000000000000000e+000) (0, 0, 0.00000000000000000000e+000) (0, 0, 0.00000000000000000000e+000) (0, 0, 0.00000000000000000000e+000) (0, 0, 0.00000000000000000000e+000) (0, 0, 0.00000000000000000000e+000) (0, 0, 0.00000000000000000000e+000) (0, 0, 0.00000000000000000000e+000) (0, 0, 0.00000000000000000000e+000) (0, 0, 0.00000000000000000000e+000) (0, 0, 0.00000000000000000000e+000) (0, 0, 0.00000000000000000000e+000) (0, 0, 0.00000000000000000000e+000) (0, 0, 0.00000000000000000000e+000) (0, 0, 0.00000000000000000000e+000) (0, 0, 0.00000000000000000000e+000) (0, 0, 0.00000000000000000000e+000) (0, 0, 0.00000000000000000000e+000) (0, 0, 0.00000000000000000000e+000) (0, 0, 0.00000000000000000000e+000) (0, 0, 0.00000000000000000000e+000) (0, 0, 0.00000000000000000000e+000) (0, 0, 0.00000000000000000000e+000) (0, 0, 0.00000000000000000000e+000) (0, 0, 0.00000000000000000000e+000) (0, 0, 0.00000000000000000000e+000) (0, 0, 0.00000000000000000000e+000) (0, 0, 0.00000000000000000000e+000) (0, 0, 0.00000000000000000000e+000) (0, 0, 0.00000000000000000000e+000) (0, 0, 0.00000000000000000000e+000) (0, 0, 0.00000000000000000000e+000) (0, 0, 0.00000000000000000000e+000) (0, 0, 0.00000000000000000000e+000) (0, 0, 0.00000000000000000000e+000) (0, 0, 0.00000000000000000000e+000) (0, 0, 0.00000000000000000000e+000) (0, 0, 0.00000000000000000000e+000) (0, 0, 0.00000000000000000000e+000) (0, 0, 0.00000000000000000000e+000) (0, 0, 0.00000000000000000000e+000) (0, 0, 0.00000000000000000000e+000) (0, 0, 0.00000000000000000000e+000) (0, 0, 0.00000000000000000000e+000) (0, 0, 0.00000000000000000000e+000) (0, 0, 0.00000000000000000000e+000) (0, 0, 0.00000000000000000000e+000) (0, 0, 0.00000000000000000000e+000) (0, 0, 0.00000000000000000000e+000) (0, 0, 0.00000000000000000000e+000) (0, 0, 0.00000000000000000000e+000) (0, 0, 0.00000000000000000000e+000) (0, 0, 0.00000000000000000000e+000) (0, 0, 0.00000000000000000000e+000) (0, 0, 0.00000000000000000000e+000) (0, 0, 0.00000000000000000000e+000) (0, 0, 0.00000000000000000000e+000) (0, 0, 0.00000000000000000000e+000) (0, 0, 0.00000000000000000000e+000) (0, 0, 0.00000000000000000000e+000) (0, 0, 0.00000000000000000000e+000) (0, 0, 0.00000000000000000000e+000) (0, 0, 0.00000000000000000000e+000) (0, 0, 0.00000000000000000000e+000) (0, 0, 0.00000000000000000000e+000) (0, 0, 0.00000000000000000000e+000) (0, 0, 0.00000000000000000000e+000) (0, 0, 0.00000000000000000000e+000) (0, 0, 0.00000000000000000000e+000) (0, 0, 0.00000000000000000000e+000) (0, 0, 0.00000000000000000000e+000) (0, 0, 0.00000000000000000000e+000) (0, 0, 0.00000000000000000000e+000) (0, 0, 0.00000000000000000000e+000) (0, 0, 0.00000000000000000000e+000) (0, 0, 0.00000000000000000000e+000) (0, 0, 0.00000000000000000000e+000) (0, 0, 0.00000000000000000000e+000) (0, 0, 0.00000000000000000000e+000) (0, 0, 0.00000000000000000000e+000) (0, 0, 0.00000000000000000000e+000) (0, 0, 0.00000000000000000000e+000) (0, 0, 0.00000000000000000000e+000) (0, 0, 0.00000000000000000000e+000) (0, 0, 0.00000000000000000000e+000) (0, 0, 0.00000000000000000000e+000) (0, 0, 0.00000000000000000000e+000) (0, 0, 0.00000000000000000000e+000) (0, 0, 0.00000000000000000000e+000) (0, 0, 0.00000000000000000000e+000) (0, 0, 0.00000000000000000000e+000) (0, 0, 0.00000000000000000000e+000) (0, 0, 0.00000000000000000000e+000) (0, 0, 0.00000000000000000000e+000) (0, 0, 0.00000000000000000000e+000) (0, 0, 0.00000000000000000000e+000) (0, 0, 0.00000000000000000000e+000) (0, 0, 0.00000000000000000000e+000) (0, 0, 0.00000000000000000000e+000) (0, 0, 0.00000000000000000000e+000) (0, 0, 0.00000000000000000000e+000) (0, 0, 0.00000000000000000000e+000) (0, 0, 0.00000000000000000000e+000) (0, 0, 0.00000000000000000000e+000) (0, 0, 0.00000000000000000000e+000) (0, 0, 0.00000000000000000000e+000) (0, 0, 0.00000000000000000000e+000) (0, 0, 0.00000000000000000000e+000) (0, 0, 0.00000000000000000000e+000) (0, 0, 0.00000000000000000000e+000) (0, 0, 0.00000000000000000000e+000) (0, 0, 0.00000000000000000000e+000) (0, 0, 0.00000000000000000000e+000) (0, 0, 0.00000000000000000000e+000) (0, 0, 0.00000000000000000000e+000) (0, 0, 0.00000000000000000000e+000) (0, 0, 0.00000000000000000000e+000) (0, 0, 0.00000000000000000000e+000) (0, 0, 0.00000000000000000000e+000) (0, 0, 0.00000000000000000000e+000) (0, 0, 0.00000000000000000000e+000) (0, 0, 0.00000000000000000000e+000) (0, 0, 0.00000000000000000000e+000) (0, 0, 0.00000000000000000000e+000) (0, 0, 0.00000000000000000000e+000) (0, 0, 0.00000000000000000000e+000) (0, 0, 0.00000000000000000000e+000) (0, 0, 0.00000000000000000000e+000) (0, 0, 0.00000000000000000000e+000) (0, 0, 0.00000000000000000000e+000) (0, 0, 0.00000000000000000000e+000) (0, 0, 0.00000000000000000000e+000) (0, 0, 0.00000000000000000000e+000) (0, 0, 0.00000000000000000000e+000) (0, 0, 0.00000000000000000000e+000) (0, 0, 0.00000000000000000000e+000) (0, 0, 0.00000000000000000000e+000) (0, 0, 0.00000000000000000000e+000) (0, 0, 0.00000000000000000000e+000) (0, 0, 0.00000000000000000000e+000) (0, 0, 0.00000000000000000000e+000) (0, 0, 0.00000000000000000000e+000) (0, 0, 0.00000000000000000000e+000) (0, 0, 0.00000000000000000000e+000) (0, 0, 0.00000000000000000000e+000) (0, 0, 0.00000000000000000000e+000) (0, 0, 0.00000000000000000000e+000) (0, 0, 0.00000000000000000000e+000) (0, 0, 0.00000000000000000000e+000) (0, 0, 0.00000000000000000000e+000) (0, 0, 0.00000000000000000000e+000) (0, 0, 0.00000000000000000000e+000) (0, 0, 0.00000000000000000000e+000) (0, 0, 0.00000000000000000000e+000) (0, 0, 0.00000000000000000000e+000) (0, 0, 0.00000000000000000000e+000) (0, 0, 0.00000000000000000000e+000) (0, 0, 0.00000000000000000000e+000) (0, 0, 0.00000000000000000000e+000) (0, 0, 0.00000000000000000000e+000) (0, 0, 0.00000000000000000000e+000) (0, 0, 0.00000000000000000000e+000) (0, 0, 0.00000000000000000000e+000) (0, 0, 0.00000000000000000000e+000) (0, 0, 0.00000000000000000000e+000) (0, 0, 0.00000000000000000000e+000) (0, 0, 0.00000000000000000000e+000) (0, 0, 0.00000000000000000000e+000) (0, 0, 0.00000000000000000000e+000) (0, 0, 0.00000000000000000000e+000) (0, 0, 0.00000000000000000000e+000) (0, 0, 0.00000000000000000000e+000) (0, 0, 0.00000000000000000000e+000) (0, 0, 0.00000000000000000000e+000) (0, 0, 0.00000000000000000000e+000) (0, 0, 0.00000000000000000000e+000) (0, 0, 0.00000000000000000000e+000) (0, 0, 0.00000000000000000000e+000) (0, 0, 0.00000000000000000000e+000) (0, 0, 0.00000000000000000000e+000) (0, 0, 0.00000000000000000000e+000) (0, 0, 0.00000000000000000000e+000) (0, 0, 0.00000000000000000000e+000) (0, 0, 0.00000000000000000000e+000) (0, 0, 0.00000000000000000000e+000) (0, 0, 0.00000000000000000000e+000) (0, 0, 0.00000000000000000000e+000) (0, 0, 0.00000000000000000000e+000) (0, 0, 0.00000000000000000000e+000) (0, 0, 0.00000000000000000000e+000) (0, 0, 0.00000000000000000000e+000) (0, 0, 0.00000000000000000000e+000) (0, 0, 0.00000000000000000000e+000) (0, 0, 0.00000000000000000000e+000) (0, 0, 0.00000000000000000000e+000) (0, 0, 0.00000000000000000000e+000) (0, 0, 0.00000000000000000000e+000) (0, 0, 0.00000000000000000000e+000) (0, 0, 0.00000000000000000000e+000) (0, 0, 0.00000000000000000000e+000) (0, 0, 0.00000000000000000000e+000) (0, 0, 0.00000000000000000000e+000) (0, 0, 0.00000000000000000000e+000) (0, 0, 0.00000000000000000000e+000) (0, 0, 0.00000000000000000000e+000) (0, 0, 0.00000000000000000000e+000) (0, 0, 0.00000000000000000000e+000) (0, 0, 0.00000000000000000000e+000) (0, 0, 0.00000000000000000000e+000) (0, 0, 0.00000000000000000000e+000) (0, 0, 0.00000000000000000000e+000) (0, 0, 0.00000000000000000000e+000) (0, 0, 0.00000000000000000000e+000) (0, 0, 0.00000000000000000000e+000) (0, 0, 0.00000000000000000000e+000) (0, 0, 0.00000000000000000000e+000) (0, 0, 0.00000000000000000000e+000) (0, 0, 0.00000000000000000000e+000) (0, 0, 0.00000000000000000000e+000) (0, 0, 0.00000000000000000000e+000) (0, 0, 0.00000000000000000000e+000) (0, 0, 0.00000000000000000000e+000) (0, 0, 0.00000000000000000000e+000) (0, 0, 0.00000000000000000000e+000) (0, 0, 0.00000000000000000000e+000) (0, 0, 0.00000000000000000000e+000) (0, 0, 0.00000000000000000000e+000) (0, 0, 0.00000000000000000000e+000) (0, 0, 0.00000000000000000000e+000) (0, 0, 0.00000000000000000000e+000) (0, 0, 0.00000000000000000000e+000) (0, 0, 0.00000000000000000000e+000) (0, 0, 0.00000000000000000000e+000) (0, 0, 0.00000000000000000000e+000) (0, 0, 0.00000000000000000000e+000) (0, 0, 0.00000000000000000000e+000) (0, 0, 0.00000000000000000000e+000) (0, 0, 0.00000000000000000000e+000) (0, 0, 0.00000000000000000000e+000) (0, 0, 0.00000000000000000000e+000) (0, 0, 0.00000000000000000000e+000) (0, 0, 0.00000000000000000000e+000) (0, 0, 0.00000000000000000000e+000) (0, 0, 0.00000000000000000000e+000) (0, 0, 0.00000000000000000000e+000) (0, 0, 0.00000000000000000000e+000) (0, 0, 0.00000000000000000000e+000) (0, 0, 0.00000000000000000000e+000) (0, 0, 0.00000000000000000000e+000) (0, 0, 0.00000000000000000000e+000) (0, 0, 0.00000000000000000000e+000) (0, 0, 0.00000000000000000000e+000) (0, 0, 0.00000000000000000000e+000) (0, 0, 0.00000000000000000000e+000) (0, 0, 0.00000000000000000000e+000) (0, 0, 0.00000000000000000000e+000) (0, 0, 0.00000000000000000000e+000) (0, 0, 0.00000000000000000000e+000) (0, 0, 0.00000000000000000000e+000) (0, 0, 0.00000000000000000000e+000) (0, 0, 0.00000000000000000000e+000) (0, 0, 0.00000000000000000000e+000) (0, 0, 0.00000000000000000000e+000) (0, 0, 0.00000000000000000000e+000) (0, 0, 0.00000000000000000000e+000) (0, 0, 0.00000000000000000000e+000) (0, 0, 0.00000000000000000000e+000) (0, 0, 0.00000000000000000000e+000) (0, 0, 0.00000000000000000000e+000) (0, 0, 0.00000000000000000000e+000) (0, 0, 0.00000000000000000000e+000) (0, 0, 0.00000000000000000000e+000) (0, 0, 0.00000000000000000000e+000) (0, 0, 0.00000000000000000000e+000) (0, 0, 0.00000000000000000000e+000) (0, 0, 0.00000000000000000000e+000) (0, 0, 0.00000000000000000000e+000) (0, 0, 0.00000000000000000000e+000) (0, 0, 0.00000000000000000000e+000) (0, 0, 0.00000000000000000000e+000) (0, 0, 0.00000000000000000000e+000) (0, 0, 0.00000000000000000000e+000) (0, 0, 0.00000000000000000000e+000) (0, 0, 0.00000000000000000000e+000) (0, 0, 0.00000000000000000000e+000) (0, 0, 0.00000000000000000000e+000) (0, 0, 0.00000000000000000000e+000) (0, 0, 0.00000000000000000000e+000) (0, 0, 0.00000000000000000000e+000) (0, 0, 0.00000000000000000000e+000) (0, 0, 0.00000000000000000000e+000) (0, 0, 0.00000000000000000000e+000) (0, 0, 0.00000000000000000000e+000) (0, 0, 0.00000000000000000000e+000) (0, 0, 0.00000000000000000000e+000) (0, 0, 0.00000000000000000000e+000) (0, 0, 0.00000000000000000000e+000) (0, 0, 0.00000000000000000000e+000) (0, 0, 0.00000000000000000000e+000) (0, 0, 0.00000000000000000000e+000) (0, 0, 0.00000000000000000000e+000) (0, 0, 0.00000000000000000000e+000) (0, 0, 0.00000000000000000000e+000) (0, 0, 0.00000000000000000000e+000) (0, 0, 0.00000000000000000000e+000) (0, 0, 0.00000000000000000000e+000) (0, 0, 0.00000000000000000000e+000) (0, 0, 0.00000000000000000000e+000) (0, 0, 0.00000000000000000000e+000) (0, 0, 0.00000000000000000000e+000) (0, 0, 0.00000000000000000000e+000) (0, 0, 0.00000000000000000000e+000) (0, 0, 0.00000000000000000000e+000) (0, 0, 0.00000000000000000000e+000) (0, 0, 0.00000000000000000000e+000) (0, 0, 0.00000000000000000000e+000) (0, 0, 0.00000000000000000000e+000) (0, 0, 0.00000000000000000000e+000) (0, 0, 0.00000000000000000000e+000) (0, 0, 0.00000000000000000000e+000) (0, 0, 0.00000000000000000000e+000) (0, 0, 0.00000000000000000000e+000) (0, 0, 0.00000000000000000000e+000) (0, 0, 0.00000000000000000000e+000) (0, 0, 0.00000000000000000000e+000) (0, 0, 0.00000000000000000000e+000) (0, 0, 0.00000000000000000000e+000) (0, 0, 0.00000000000000000000e+000) (0, 0, 0.00000000000000000000e+000) (0, 0, 0.00000000000000000000e+000) (0, 0, 0.00000000000000000000e+000) (0, 0, 0.00000000000000000000e+000) (0, 0, 0.00000000000000000000e+000) (0, 0, 0.00000000000000000000e+000) (0, 0, 0.00000000000000000000e+000) (0, 0, 0.00000000000000000000e+000) (0, 0, 0.00000000000000000000e+000) (0, 0, 0.00000000000000000000e+000) (0, 0, 0.00000000000000000000e+000) (0, 0, 0.00000000000000000000e+000) (0, 0, 0.00000000000000000000e+000) (0, 0, 0.00000000000000000000e+000) (0, 0, 0.00000000000000000000e+000) (0, 0, 0.00000000000000000000e+000) (0, 0, 0.00000000000000000000e+000) (0, 0, 0.00000000000000000000e+000) (0, 0, 0.00000000000000000000e+000) (0, 0, 0.00000000000000000000e+000) (0, 0, 0.00000000000000000000e+000) (0, 0, 0.00000000000000000000e+000) (0, 0, 0.00000000000000000000e+000) (0, 0, 0.00000000000000000000e+000) (0, 0, 0.00000000000000000000e+000) (0, 0, 0.00000000000000000000e+000) (0, 0, 0.00000000000000000000e+000) (0, 0, 0.00000000000000000000e+000) (0, 0, 0.00000000000000000000e+000) (0, 0, 0.00000000000000000000e+000) (0, 0, 0.00000000000000000000e+000) (0, 0, 0.00000000000000000000e+000) (0, 0, 0.00000000000000000000e+000) (0, 0, 0.00000000000000000000e+000) (0, 0, 0.00000000000000000000e+000) (0, 0, 0.00000000000000000000e+000) (0, 0, 0.00000000000000000000e+000) (0, 0, 0.00000000000000000000e+000) (0, 0, 0.00000000000000000000e+000) (0, 0, 0.00000000000000000000e+000) (0, 0, 0.00000000000000000000e+000) (0, 0, 0.00000000000000000000e+000) (0, 0, 0.00000000000000000000e+000) (0, 0, 0.00000000000000000000e+000) (0, 0, 0.00000000000000000000e+000) (0, 0, 0.00000000000000000000e+000) (0, 0, 0.00000000000000000000e+000) (0, 0, 0.00000000000000000000e+000) (0, 0, 0.00000000000000000000e+000) (0, 0, 0.00000000000000000000e+000) (0, 0, 0.00000000000000000000e+000) (0, 0, 0.00000000000000000000e+000) (0, 0, 0.00000000000000000000e+000) (0, 0, 0.00000000000000000000e+000) (0, 0, 0.00000000000000000000e+000) (0, 0, 0.00000000000000000000e+000) (0, 0, 0.00000000000000000000e+000) (0, 0, 0.00000000000000000000e+000) (0, 0, 0.00000000000000000000e+000) (0, 0, 0.00000000000000000000e+000) (0, 0, 0.00000000000000000000e+000) (0, 0, 0.00000000000000000000e+000) (0, 0, 0.00000000000000000000e+000) (0, 0, 0.00000000000000000000e+000) (0, 0, 0.00000000000000000000e+000) (0, 0, 0.00000000000000000000e+000) (0, 0, 0.00000000000000000000e+000) (0, 0, 0.00000000000000000000e+000) (0, 0, 0.00000000000000000000e+000) (0, 0, 0.00000000000000000000e+000) (0, 0, 0.00000000000000000000e+000) (0, 0, 0.00000000000000000000e+000) (0, 0, 0.00000000000000000000e+000) (0, 0, 0.00000000000000000000e+000) (0, 0, 0.00000000000000000000e+000) (0, 0, 0.00000000000000000000e+000) (0, 0, 0.00000000000000000000e+000) (0, 0, 0.00000000000000000000e+000) (0, 0, 0.00000000000000000000e+000) (0, 0, 0.00000000000000000000e+000) (0, 0, 0.00000000000000000000e+000) (0, 0, 0.00000000000000000000e+000) (0, 0, 0.00000000000000000000e+000) (0, 0, 0.00000000000000000000e+000) (0, 0, 0.00000000000000000000e+000) (0, 0, 0.00000000000000000000e+000) (0, 0, 0.00000000000000000000e+000) (0, 0, 0.00000000000000000000e+000) (0, 0, 0.00000000000000000000e+000) (0, 0, 0.00000000000000000000e+000) (0, 0, 0.00000000000000000000e+000) (0, 0, 0.00000000000000000000e+000) (0, 0, 0.00000000000000000000e+000) (0, 0, 0.00000000000000000000e+000) (0, 0, 0.00000000000000000000e+000) (0, 0, 0.00000000000000000000e+000) (0, 0, 0.00000000000000000000e+000) (0, 0, 0.00000000000000000000e+000) (0, 0, 0.00000000000000000000e+000) (0, 0, 0.00000000000000000000e+000) (0, 0, 0.00000000000000000000e+000) (0, 0, 0.00000000000000000000e+000) (0, 0, 0.00000000000000000000e+000) (0, 0, 0.00000000000000000000e+000) (0, 0, 0.00000000000000000000e+000) (0, 0, 0.00000000000000000000e+000) (0, 0, 0.00000000000000000000e+000) (0, 0, 0.00000000000000000000e+000) (0, 0, 0.00000000000000000000e+000) (0, 0, 0.00000000000000000000e+000) (0, 0, 0.00000000000000000000e+000) (0, 0, 0.00000000000000000000e+000) (0, 0, 0.00000000000000000000e+000) (0, 0, 0.00000000000000000000e+000) (0, 0, 0.00000000000000000000e+000) (0, 0, 0.00000000000000000000e+000) (0, 0, 0.00000000000000000000e+000) (0, 0, 0.00000000000000000000e+000) (0, 0, 0.00000000000000000000e+000) (0, 0, 0.00000000000000000000e+000) (0, 0, 0.00000000000000000000e+000) (0, 0, 0.00000000000000000000e+000) (0, 0, 0.00000000000000000000e+000) (0, 0, 0.00000000000000000000e+000) (0, 0, 0.00000000000000000000e+000) (0, 0, 0.00000000000000000000e+000) (0, 0, 0.00000000000000000000e+000) (0, 0, 0.00000000000000000000e+000) (0, 0, 0.00000000000000000000e+000) (0, 0, 0.00000000000000000000e+000) (0, 0, 0.00000000000000000000e+000) (0, 0, 0.00000000000000000000e+000) (0, 0, 0.00000000000000000000e+000) (0, 0, 0.00000000000000000000e+000) (0, 0, 0.00000000000000000000e+000) (0, 0, 0.00000000000000000000e+000) (0, 0, 0.00000000000000000000e+000) (0, 0, 0.00000000000000000000e+000) (0, 0, 0.00000000000000000000e+000) (0, 0, 0.00000000000000000000e+000) (0, 0, 0.00000000000000000000e+000) (0, 0, 0.00000000000000000000e+000) (0, 0, 0.00000000000000000000e+000) (0, 0, 0.00000000000000000000e+000) (0, 0, 0.00000000000000000000e+000) (0, 0, 0.00000000000000000000e+000) (0, 0, 0.00000000000000000000e+000) (0, 0, 0.00000000000000000000e+000) (0, 0, 0.00000000000000000000e+000) (0, 0, 0.00000000000000000000e+000) (0, 0, 0.00000000000000000000e+000) (0, 0, 0.00000000000000000000e+000) (0, 0, 0.00000000000000000000e+000) (0, 0, 0.00000000000000000000e+000) (0, 0, 0.00000000000000000000e+000) (0, 0, 0.00000000000000000000e+000) (0, 0, 0.00000000000000000000e+000) (0, 0, 0.00000000000000000000e+000) (0, 0, 0.00000000000000000000e+000) (0, 0, 0.00000000000000000000e+000) (0, 0, 0.00000000000000000000e+000) (0, 0, 0.00000000000000000000e+000) (0, 0, 0.00000000000000000000e+000) (0, 0, 0.00000000000000000000e+000) (0, 0, 0.00000000000000000000e+000) (0, 0, 0.00000000000000000000e+000) (0, 0, 0.00000000000000000000e+000) (0, 0, 0.00000000000000000000e+000) (0, 0, 0.00000000000000000000e+000) (0, 0, 0.00000000000000000000e+000) (0, 0, 0.00000000000000000000e+000) (0, 0, 0.00000000000000000000e+000) (0, 0, 0.00000000000000000000e+000) (0, 0, 0.00000000000000000000e+000) (0, 0, 0.00000000000000000000e+000) (0, 0, 0.00000000000000000000e+000) (0, 0, 0.00000000000000000000e+000) (0, 0, 0.00000000000000000000e+000) (0, 0, 0.00000000000000000000e+000) (0, 0, 0.00000000000000000000e+000) (0, 0, 0.00000000000000000000e+000) (0, 0, 0.00000000000000000000e+000) (0, 0, 0.00000000000000000000e+000) (0, 0, 0.00000000000000000000e+000) (0, 0, 0.00000000000000000000e+000) (0, 0, 0.00000000000000000000e+000) (0, 0, 0.00000000000000000000e+000) (0, 0, 0.00000000000000000000e+000) (0, 0, 0.00000000000000000000e+000) (0, 0, 0.00000000000000000000e+000) (0, 0, 0.00000000000000000000e+000) (0, 0, 0.00000000000000000000e+000) (0, 0, 0.00000000000000000000e+000) (0, 0, 0.00000000000000000000e+000) (0, 0, 0.00000000000000000000e+000) (0, 0, 0.00000000000000000000e+000) (0, 0, 0.00000000000000000000e+000) (0, 0, 0.00000000000000000000e+000) (0, 0, 0.00000000000000000000e+000) (0, 0, 0.00000000000000000000e+000) (0, 0, 0.00000000000000000000e+000) (0, 0, 0.00000000000000000000e+000) (0, 0, 0.00000000000000000000e+000) (0, 0, 0.00000000000000000000e+000) (0, 0, 0.00000000000000000000e+000) (0, 0, 0.00000000000000000000e+000) (0, 0, 0.00000000000000000000e+000) (0, 0, 0.00000000000000000000e+000) (0, 0, 0.00000000000000000000e+000) (0, 0, 0.00000000000000000000e+000) (0, 0, 0.00000000000000000000e+000) (0, 0, 0.00000000000000000000e+000) (0, 0, 0.00000000000000000000e+000) (0, 0, 0.00000000000000000000e+000) (0, 0, 0.00000000000000000000e+000) (0, 0, 0.00000000000000000000e+000) (0, 0, 0.00000000000000000000e+000) (0, 0, 0.00000000000000000000e+000) (0, 0, 0.00000000000000000000e+000) (0, 0, 0.00000000000000000000e+000) (0, 0, 0.00000000000000000000e+000) (0, 0, 0.00000000000000000000e+000) (0, 0, 0.00000000000000000000e+000) (0, 0, 0.00000000000000000000e+000) (0, 0, 0.00000000000000000000e+000) (0, 0, 0.00000000000000000000e+000) (0, 0, 0.00000000000000000000e+000) (0, 0, 0.00000000000000000000e+000) (0, 0, 0.00000000000000000000e+000) (0, 0, 0.00000000000000000000e+000) (0, 0, 0.00000000000000000000e+000) (0, 0, 0.00000000000000000000e+000) (0, 0, 0.00000000000000000000e+000) (0, 0, 0.00000000000000000000e+000) (0, 0, 0.00000000000000000000e+000) (0, 0, 0.00000000000000000000e+000) (0, 0, 0.00000000000000000000e+000) (0, 0, 0.00000000000000000000e+000) (0, 0, 0.00000000000000000000e+000) (0, 0, 0.00000000000000000000e+000) (0, 0, 0.00000000000000000000e+000) (0, 0, 0.00000000000000000000e+000) (0, 0, 0.00000000000000000000e+000) (0, 0, 0.00000000000000000000e+000) (0, 0, 0.00000000000000000000e+000) (0, 0, 0.00000000000000000000e+000) (0, 0, 0.00000000000000000000e+000) (0, 0, 0.00000000000000000000e+000) (0, 0, 0.00000000000000000000e+000) (0, 0, 0.00000000000000000000e+000) (0, 0, 0.00000000000000000000e+000) (0, 0, 0.00000000000000000000e+000) (0, 0, 0.00000000000000000000e+000) (0, 0, 0.00000000000000000000e+000) (0, 0, 0.00000000000000000000e+000) (0, 0, 0.00000000000000000000e+000) (0, 0, 0.00000000000000000000e+000) (0, 0, 0.00000000000000000000e+000) (0, 0, 0.00000000000000000000e+000) (0, 0, 0.00000000000000000000e+000) (0, 0, 0.00000000000000000000e+000) (0, 0, 0.00000000000000000000e+000) (0, 0, 0.00000000000000000000e+000) (0, 0, 0.00000000000000000000e+000) (0, 0, 0.00000000000000000000e+000) (0, 0, 0.00000000000000000000e+000) (0, 0, 0.00000000000000000000e+000) (0, 0, 0.00000000000000000000e+000) (0, 0, 0.00000000000000000000e+000) (0, 0, 0.00000000000000000000e+000) (0, 0, 0.00000000000000000000e+000) (0, 0, 0.00000000000000000000e+000) (0, 0, 0.00000000000000000000e+000) (0, 0, 0.00000000000000000000e+000) (0, 0, 0.00000000000000000000e+000) (0, 0, 0.00000000000000000000e+000) (0, 0, 0.00000000000000000000e+000) (0, 0, 0.00000000000000000000e+000) (0, 0, 0.00000000000000000000e+000) (0, 0, 0.00000000000000000000e+000) (0, 0, 0.00000000000000000000e+000) (0, 0, 0.00000000000000000000e+000) (0, 0, 0.00000000000000000000e+000) (0, 0, 0.00000000000000000000e+000) (0, 0, 0.00000000000000000000e+000) (0, 0, 0.00000000000000000000e+000) (0, 0, 0.00000000000000000000e+000) (0, 0, 0.00000000000000000000e+000) (0, 0, 0.00000000000000000000e+000) (0, 0, 0.00000000000000000000e+000) (0, 0, 0.00000000000000000000e+000) (0, 0, 0.00000000000000000000e+000) (0, 0, 0.00000000000000000000e+000) (0, 0, 0.00000000000000000000e+000) (0, 0, 0.00000000000000000000e+000) (0, 0, 0.00000000000000000000e+000) (0, 0, 0.00000000000000000000e+000) (0, 0, 0.00000000000000000000e+000) (0, 0, 0.00000000000000000000e+000) (0, 0, 0.00000000000000000000e+000) (0, 0, 0.00000000000000000000e+000) (0, 0, 0.00000000000000000000e+000) (0, 0, 0.00000000000000000000e+000) (0, 0, 0.00000000000000000000e+000) (0, 0, 0.00000000000000000000e+000) (0, 0, 0.00000000000000000000e+000) (0, 0, 0.00000000000000000000e+000) (0, 0, 0.00000000000000000000e+000) (0, 0, 0.00000000000000000000e+000) (0, 0, 0.00000000000000000000e+000) (0, 0, 0.00000000000000000000e+000) (0, 0, 0.00000000000000000000e+000) (0, 0, 0.00000000000000000000e+000) (0, 0, 0.00000000000000000000e+000) (0, 0, 0.00000000000000000000e+000) (0, 0, 0.00000000000000000000e+000) (0, 0, 0.00000000000000000000e+000) (0, 0, 0.00000000000000000000e+000) (0, 0, 0.00000000000000000000e+000) (0, 0, 0.00000000000000000000e+000) (0, 0, 0.00000000000000000000e+000) (0, 0, 0.00000000000000000000e+000) (0, 0, 0.00000000000000000000e+000) (0, 0, 0.00000000000000000000e+000) (0, 0, 0.00000000000000000000e+000) (0, 0, 0.00000000000000000000e+000) (0, 0, 0.00000000000000000000e+000) (0, 0, 0.00000000000000000000e+000) (0, 0, 0.00000000000000000000e+000) (0, 0, 0.00000000000000000000e+000) (0, 0, 0.00000000000000000000e+000) (0, 0, 0.00000000000000000000e+000) (0, 0, 0.00000000000000000000e+000) (0, 0, 0.00000000000000000000e+000) (0, 0, 0.00000000000000000000e+000) (0, 0, 0.00000000000000000000e+000) (0, 0, 0.00000000000000000000e+000) (0, 0, 0.00000000000000000000e+000) (0, 0, 0.00000000000000000000e+000) (0, 0, 0.00000000000000000000e+000) (0, 0, 0.00000000000000000000e+000) (0, 0, 0.00000000000000000000e+000) (0, 0, 0.00000000000000000000e+000) (0, 0, 0.00000000000000000000e+000) (0, 0, 0.00000000000000000000e+000) (0, 0, 0.00000000000000000000e+000) (0, 0, 0.00000000000000000000e+000) (0, 0, 0.00000000000000000000e+000) (0, 0, 0.00000000000000000000e+000) (0, 0, 0.00000000000000000000e+000) (0, 0, 0.00000000000000000000e+000) (0, 0, 0.00000000000000000000e+000) (0, 0, 0.00000000000000000000e+000) (0, 0, 0.00000000000000000000e+000) (0, 0, 0.00000000000000000000e+000) (0, 0, 0.00000000000000000000e+000) (0, 0, 0.00000000000000000000e+000) (0, 0, 0.00000000000000000000e+000) (0, 0, 0.00000000000000000000e+000) (0, 0, 0.00000000000000000000e+000) (0, 0, 0.00000000000000000000e+000) (0, 0, 0.00000000000000000000e+000) (0, 0, 0.00000000000000000000e+000) (0, 0, 0.00000000000000000000e+000) (0, 0, 0.00000000000000000000e+000) (0, 0, 0.00000000000000000000e+000) (0, 0, 0.00000000000000000000e+000) (0, 0, 0.00000000000000000000e+000) (0, 0, 0.00000000000000000000e+000) (0, 0, 0.00000000000000000000e+000) (0, 0, 0.00000000000000000000e+000) (0, 0, 0.00000000000000000000e+000) (0, 0, 0.00000000000000000000e+000) (0, 0, 0.00000000000000000000e+000) (0, 0, 0.00000000000000000000e+000) (0, 0, 0.00000000000000000000e+000) (0, 0, 0.00000000000000000000e+000) (0, 0, 0.00000000000000000000e+000) (0, 0, 0.00000000000000000000e+000) (0, 0, 0.00000000000000000000e+000) (0, 0, 0.00000000000000000000e+000) (0, 0, 0.00000000000000000000e+000) (0, 0, 0.00000000000000000000e+000) (0, 0, 0.00000000000000000000e+000) (0, 0, 0.00000000000000000000e+000) (0, 0, 0.00000000000000000000e+000) (0, 0, 0.00000000000000000000e+000) (0, 0, 0.00000000000000000000e+000) (0, 0, 0.00000000000000000000e+000) (0, 0, 0.00000000000000000000e+000) (0, 0, 0.00000000000000000000e+000) (0, 0, 0.00000000000000000000e+000) (0, 0, 0.00000000000000000000e+000) (0, 0, 0.00000000000000000000e+000) (0, 0, 0.00000000000000000000e+000) (0, 0, 0.00000000000000000000e+000) (0, 0, 0.00000000000000000000e+000) (0, 0, 0.00000000000000000000e+000) (0, 0, 0.00000000000000000000e+000) (0, 0, 0.00000000000000000000e+000) (0, 0, 0.00000000000000000000e+000) (0, 0, 0.00000000000000000000e+000) (0, 0, 0.00000000000000000000e+000) (0, 0, 0.00000000000000000000e+000) (0, 0, 0.00000000000000000000e+000) (0, 0, 0.00000000000000000000e+000) (0, 0, 0.00000000000000000000e+000) (0, 0, 0.00000000000000000000e+000) (0, 0, 0.00000000000000000000e+000) (0, 0, 0.00000000000000000000e+000) (0, 0, 0.00000000000000000000e+000) (0, 0, 0.00000000000000000000e+000) (0, 0, 0.00000000000000000000e+000) (0, 0, 0.00000000000000000000e+000) (0, 0, 0.00000000000000000000e+000) (0, 0, 0.00000000000000000000e+000) (0, 0, 0.00000000000000000000e+000) (0, 0, 0.00000000000000000000e+000) (0, 0, 0.00000000000000000000e+000) (0, 0, 0.00000000000000000000e+000) (0, 0, 0.00000000000000000000e+000) (0, 0, 0.00000000000000000000e+000) (0, 0, 0.00000000000000000000e+000) (0, 0, 0.00000000000000000000e+000) (0, 0, 0.00000000000000000000e+000) (0, 0, 0.00000000000000000000e+000) (0, 0, 0.00000000000000000000e+000) (0, 0, 0.00000000000000000000e+000) (0, 0, 0.00000000000000000000e+000) (0, 0, 0.00000000000000000000e+000) (0, 0, 0.00000000000000000000e+000) (0, 0, 0.00000000000000000000e+000) (0, 0, 0.00000000000000000000e+000) (842, 11, 5.00000000000000000000e-001) (842, 11, 5.00000000000000000000e-001) (842, 11, 5.00000000000000000000e-001) (842, 11, 5.00000000000000000000e-001) (842, 11, 5.00000000000000000000e-001) (842, 11, 5.00000000000000000000e-001) (842, 11, 5.00000000000000000000e-001) (842, 11, 5.00000000000000000000e-001) (842, 11, 5.00000000000000000000e-001) (842, 11, 5.00000000000000000000e-001) (842, 11, 5.00000000000000000000e-001) (842, 11, 5.00000000000000000000e-001) (842, 11, 5.00000000000000000000e-001) (842, 11, 5.00000000000000000000e-001) (842, 11, 5.00000000000000000000e-001) (842, 11, 5.00000000000000000000e-001) (842, 11, 5.00000000000000000000e-001) (842, 11, 5.00000000000000000000e-001) (842, 11, 5.00000000000000000000e-001) (842, 11, 5.00000000000000000000e-001) (842, 11, 5.00000000000000000000e-001) (842, 11, 5.00000000000000000000e-001) (842, 11, 5.00000000000000000000e-001) (842, 11, 5.00000000000000000000e-001) (842, 11, 5.00000000000000000000e-001) (842, 11, 5.00000000000000000000e-001) (842, 11, 5.00000000000000000000e-001) (842, 11, 5.00000000000000000000e-001) (842, 11, 5.00000000000000000000e-001) (842, 11, 5.00000000000000000000e-001) (0, 0, 0.00000000000000000000e+000) (31, 11, 5.00000000000000000000e-001) (0, 0, 0.00000000000000000000e+000) 
connections (connected_to_neuron, weight)=(0, -4.45751473307609560000e-002) (1, 6.41955658793449400000e-002) (2, 1.67956426739692690000e-002) (3, -4.37133386731147770000e-003) (4, 3.64223867654800420000e-002) (5, 1.26418530941009520000e+000) (6, 3.42932128906250000000e+000) (7, 3.49036192893981930000e+000) (8, 3.48434734344482420000e+000) (9, 3.43519210815429690000e+000) (10, 1.02456009387969970000e+000) (11, 3.46281433105468750000e+000) (12, 2.69742131233215330000e+000) (13, 2.64651203155517580000e+000) (14, 2.36514306068420410000e+000) (15, 2.58211469650268550000e+000) (16, 1.10639393329620360000e+000) (17, 1.25919950008392330000e+000) (18, 1.09690082073211670000e+000) (19, 1.18736708164215090000e+000) (20, -9.57502841949462890000e-001) (21, 1.09926557540893550000e+000) (22, 3.99002552032470700000e-001) (23, 2.70794391632080080000e-001) (24, 2.18828722834587100000e-001) (25, 1.44531950354576110000e-001) (26, 1.10584124922752380000e-001) (27, 9.24933552742004390000e-002) (28, 1.49441519752144810000e-002) (29, 3.28335314989089970000e-002) (30, -1.19965383782982830000e-003) (31, 6.06105960905551910000e-002) (32, 4.00539673864841460000e-002) (33, -2.49972399324178700000e-002) (34, -5.32565191388130190000e-002) (35, 1.25759355723857880000e-002) (36, 3.93825806677341460000e-002) (37, 8.36208686232566830000e-002) (38, 8.42373594641685490000e-002) (39, 6.04397095739841460000e-002) (40, -3.64107973873615260000e-002) (41, -3.88705320656299590000e-002) (42, -5.92379570007324220000e-002) (43, -1.01923778653144840000e-001) (44, -5.93112111091613770000e-002) (45, 2.94400006532669070000e-002) (46, -7.44823813438415530000e-002) (47, -5.57201728224754330000e-002) (48, 8.96593928337097170000e-002) (49, -1.48266404867172240000e-002) (50, -6.21460098773241040000e-003) (51, -8.79528075456619260000e-002) (52, -6.37829303741455080000e-002) (53, 3.87260952265933160000e-004) (54, -5.76754882931709290000e-002) (55, -3.21545265614986420000e-002) (56, 3.52663709782063960000e-003) (57, 7.28298574686050420000e-002) (58, -3.36764343082904820000e-002) (59, -2.15038806200027470000e-002) (60, -9.62596982717514040000e-002) (61, 2.82458737492561340000e-002) (62, -9.80541259050369260000e-002) (63, -4.64598834514617920000e-003) (64, -9.68334227800369260000e-002) (65, -7.90477842092514040000e-002) (66, 2.78247073292732240000e-002) (67, -2.51171719282865520000e-002) (68, -1.43261402845382690000e-002) (69, -6.75487816333770750000e-002) (70, 4.94982600212097170000e-002) (71, 4.17224168777465820000e-002) (72, 8.83410647511482240000e-002) (73, 1.83703396469354630000e-002) (74, -1.00599303841590880000e-001) (75, -9.93358641862869260000e-002) (76, 9.79092344641685490000e-002) (77, 6.59206584095954900000e-002) (78, 8.22497755289077760000e-002) (79, -9.63573604822158810000e-002) (80, 3.85180711746215820000e-002) (81, -8.91552120447158810000e-002) (82, -5.93761764466762540000e-002) (83, -2.19189077615737920000e-002) (84, -1.59374959766864780000e-002) (85, 1.48913422599434850000e-002) (86, 7.18960389494895940000e-002) (87, -6.99251964688301090000e-002) (88, -6.97237923741340640000e-002) (89, -9.32384580373764040000e-002) (90, -2.28832773864269260000e-002) (91, 7.79223591089248660000e-002) (92, 1.04846432805061340000e-002) (93, 9.60437208414077760000e-002) (94, -7.48912990093231200000e-002) (95, 7.43640139698982240000e-002) (96, -6.37340843677520750000e-002) (97, 6.44335746765136720000e-002) (98, -8.30477550625801090000e-002) (99, 7.75662213563919070000e-002) (100, 4.15698289871215820000e-002) (101, 4.11669611930847170000e-002) (102, -1.52478115633130070000e-002) (103, -2.01123207807540890000e-002) (104, 5.77441453933715820000e-002) (105, -8.83678644895553590000e-002) (106, -4.41112741827964780000e-002) (107, -9.94396358728408810000e-002) (108, 4.85644340515136720000e-002) (109, -8.45836848020553590000e-002) (110, -8.85387510061264040000e-002) (111, 5.31948246061801910000e-002) (112, 4.45888675749301910000e-002) (113, 9.73537787795066830000e-002) (114, -8.38695615530014040000e-002) (115, -1.02307004854083060000e-002) (116, -9.27401259541511540000e-002) (117, -7.57174268364906310000e-002) (118, -9.40523818135261540000e-002) (119, -6.54696449637413020000e-002) (120, 1.27102266997098920000e-002) (121, -6.75936564803123470000e-002) (122, 1.59851774573326110000e-001) (123, 5.52863441407680510000e-002) (124, 7.89068937301635740000e-002) (125, 3.44686093740165230000e-003) (126, 1.63462758064270020000e-001) (127, -7.77010694146156310000e-002) (128, -9.18773859739303590000e-002) (129, -7.98717588186264040000e-002) (130, 7.66567736864089970000e-002) (131, 9.62307527661323550000e-002) (132, 6.51271939277648930000e-002) (133, 8.56045112013816830000e-002) (134, -8.75033214688301090000e-002) (135, 5.74001707136631010000e-002) (136, 6.68501183390617370000e-002) (137, 7.51485729217529300000e+000) (138, 2.02376134693622590000e-002) (139, 1.71836733818054200000e-001) (140, 1.07100503519177440000e-002) (141, 7.48129235580563550000e-003) (142, -6.31876243278384210000e-003) (143, -3.12533266842365260000e-002) (144, -3.46874520182609560000e-002) (145, -6.44726157188415530000e-002) (146, -6.73534572124481200000e-002) (147, -3.27120907604694370000e-002) (148, 1.02523468434810640000e-001) (149, -7.67000988125801090000e-002) (150, 4.51076664030551910000e-002) (151, 3.65505963563919070000e-002) (152, -3.62155027687549590000e-002) (153, 6.09157718718051910000e-002) (154, 8.25222283601760860000e-002) (155, -6.98519423604011540000e-002) (156, -4.43450920283794400000e-003) (157, 3.76003384590148930000e-002) (158, -9.29232314229011540000e-002) (159, 8.05874615907669070000e-002) (160, 2.34516639709472660000e+001) (161, -1.55370659194886680000e-003) (162, 4.74047660827636720000e-002) (163, 5.94409108161926270000e-002) (164, -1.04492297396063800000e-003) (165, 8.36450513452291490000e-003) (166, -2.97581334598362450000e-003) (167, -2.64986921101808550000e-002) (168, -6.73861429095268250000e-002) (169, -5.80844022333621980000e-002) (170, 9.73476991057395940000e-002) (171, 5.12416996061801910000e-002) (172, -8.16561654210090640000e-002) (173, 6.26491978764534000000e-002) (174, 9.70913246273994450000e-002) (175, -2.09323242306709290000e-002) (176, -8.49703624844551090000e-002) (177, 4.81228269636631010000e-002) (178, 6.60244300961494450000e-002) (179, -5.96468895673751830000e-002) (180, 9.45156365633010860000e-002) (181, -8.31148996949195860000e-002) (182, 3.90246547758579250000e-002) (183, 8.23850184679031370000e-003) (184, 8.82189944386482240000e-002) (185, 1.36440554633736610000e-002) (186, -7.82626047730445860000e-002) (187, 9.84585508704185490000e-002) (188, 9.84035953879356380000e-002) (189, -9.10860970616340640000e-002) (190, -5.57162463665008540000e-002) (191, 4.36306633055210110000e-002) (192, 1.07387956231832500000e-002) (193, -3.06551977992057800000e-002) (194, 4.76467646658420560000e-002) (195, 4.87209595739841460000e-002) (196, -5.74618726968765260000e-002) (197, 5.50137199461460110000e-002) (198, -1.94125249981880190000e-002) (199, -1.95956304669380190000e-002) (200, 5.47756589949131010000e-002) (201, 9.99294742941856380000e-002) (202, -9.57982148975133900000e-003) (203, 4.88002933561801910000e-002) (204, -3.90231199562549590000e-002) (205, 2.47179940342903140000e-002) (206, 8.09375196695327760000e-002) (207, -7.03014731407165530000e-002) (208, -3.63131649792194370000e-002) (209, -1.15207154303789140000e-002) (210, 2.66384594142436980000e-002) (211, -8.36519803851842880000e-003) (212, -9.30758193135261540000e-002) (213, 8.39932188391685490000e-002) (214, 2.25430279970169070000e-002) (215, -1.80880799889564510000e-002) (216, -7.40572884678840640000e-002) (217, 8.59463438391685490000e-002) (218, -4.58224304020404820000e-002) (219, 3.12283169478178020000e-002) (220, 7.54238516092300420000e-002) (221, 5.49343265593051910000e-002) (222, 6.55728057026863100000e-002) (223, 2.98367291688919070000e-002) (224, 4.27083484828472140000e-003) (225, -7.55165610462427140000e-003) (226, -4.63418755680322650000e-003) (227, -7.38171041011810300000e-002) (228, 5.09914793074131010000e-002) (229, -6.20983541011810300000e-002) (230, -5.28026744723320010000e-002) (231, 4.70935106277465820000e-002) (232, 5.49670457839965820000e-002) (233, -5.68270906805992130000e-002) (234, 4.76957391947507860000e-003) (235, -4.83370907604694370000e-002) (236, 8.02639275789260860000e-002) (237, -6.42428966239094730000e-003) (238, 3.55251505970954900000e-002) (239, 2.63943187892436980000e-002) (240, 1.64150800555944440000e-002) (241, -7.98800364136695860000e-002) (242, 2.82252836041152480000e-003) (243, 2.78347283601760860000e-002) (244, 6.96804746985435490000e-002) (245, 8.48354920744895940000e-002) (246, 4.33376468718051910000e-002) (247, -2.23056189715862270000e-002) (248, -2.02975347638130190000e-002) (249, -4.55660708248615260000e-002) (250, 8.83013126440346240000e-006) (251, -8.20284560322761540000e-002) (252, 1.18354272842407230000e+000) (253, 1.25189042091369630000e+000) (254, -1.02857604622840880000e-001) (255, -1.83728188276290890000e-002) (256, -7.75036066770553590000e-002) (257, 4.72826957702636720000e-002) (258, -6.03771395981311800000e-002) (259, 3.58569175004959110000e-002) (260, 7.35349347814917560000e-003) (261, 7.95620232820510860000e-002) (262, -3.39144654572010040000e-002) (263, 1.02749310433864590000e-001) (264, 8.24795514345169070000e-002) (265, -6.11239299178123470000e-002) (266, -1.13131711259484290000e-002) (267, 6.49685338139534000000e-002) (268, 1.08181303367018700000e-002) (269, -6.35103555396199230000e-003) (270, 5.07229007780551910000e-002) (271, -3.72836180031299590000e-002) (272, -2.26290933787822720000e-002) (273, -1.93942263722419740000e-002) (274, 3.19424420595169070000e-002) (275, -1.31198577582836150000e-002) (276, 1.89602524042129520000e-002) (277, 1.47581398487091060000e-001) (278, 2.10005529224872590000e-002) (279, 1.20344483852386470000e+000) (280, 1.21496832370758060000e+000) (281, 1.30448257923126220000e+000) (282, 1.16316163539886470000e+000) (283, 1.20694220066070560000e+000) (284, 1.31177031993865970000e+000) (285, 7.44289904832839970000e-002) (286, 4.31750416755676270000e-002) (287, -5.61647024005651470000e-003) (288, 4.73254323005676270000e-002) (289, 3.66565100848674770000e-002) (290, -7.94567316770553590000e-002) (291, -7.59288966655731200000e-002) (292, 2.26589590311050420000e-002) (293, -5.96346706151962280000e-002) (294, 1.92959439009428020000e-002) (295, -3.56234498322010040000e-002) (296, 4.94473017752170560000e-002) (297, -6.44747838377952580000e-002) (298, 4.67129386961460110000e-002) (299, -7.49178603291511540000e-002) (300, -6.48532481864094730000e-003) (301, -4.04330380260944370000e-002) (302, 1.57744693569839000000e-003) (303, -7.55951739847660060000e-003) (304, -4.30514402687549590000e-002) (305, 8.87295231223106380000e-002) (306, 9.43159162998199460000e-002) (307, 1.24687016010284420000e-001) (308, 1.83921694755554200000e-001) (309, 2.43129238486289980000e-001) (310, 2.85603404045104980000e-001) (311, 3.40213239192962650000e-001) (312, 3.45425665378570560000e-001) (313, 3.51931989192962650000e-001) (314, 3.53024542331695560000e-001) (315, 3.26870918273925780000e-001) (316, -2.20065540634095670000e-003) (317, -4.55443561077117920000e-003) (318, 4.23693656921386720000e-002) (319, 7.30212405323982240000e-002) (320, -1.01679638028144840000e-001) (321, 7.60424882173538210000e-002) (322, 6.58923313021659850000e-002) (323, -2.43603102862834930000e-002) (324, -3.64940986037254330000e-002) (325, 9.08840522170066830000e-002) (326, 7.40688592195510860000e-002) (327, 9.19461902230978010000e-003) (328, 1.03188775479793550000e-001) (329, -3.71432192623615260000e-002) (330, -6.03549070656299590000e-002) (331, 9.96365174651145940000e-002) (332, -2.45333947241306300000e-002) (333, 9.99722108244895940000e-002) (334, -8.78329053521156310000e-002) (335, 9.33498963713645940000e-002) (336, 1.06929838657379150000e+000) (337, 5.69642603397369380000e-001) (338, 7.04731702804565430000e-001) (339, 1.10581719875335690000e+000) (340, 1.07736885547637940000e+000) (341, 1.03483366966247560000e+000) (342, 1.13469302654266360000e+000) (343, 1.05265009403228760000e+000) (344, 1.14331734180450440000e+000) (345, 1.14617383480072020000e+000) (346, 1.18754994869232180000e+000) (347, 1.19004619121551510000e+000) (348, 1.07329785823822020000e+000) (349, 1.03950273990631100000e+000) (350, 1.17958760261535640000e+000) (351, -9.20387953519821170000e-002) (352, 9.52624827623367310000e-002) (353, -4.38854619860649110000e-002) (354, 5.36486506462097170000e-002) (355, 6.62720948457717900000e-003) (356, 5.34106492996215820000e-002) (357, -3.15441749989986420000e-002) (358, 3.94396781921386720000e-002) (359, -6.88244104385375980000e-002) (360, -1.71887129545211790000e-002) (361, 3.18630486726760860000e-002) (362, 8.45120176672935490000e-002) (363, -1.24911451712250710000e-002) (364, 1.33617293834686280000e+000) (365, -9.52364876866340640000e-002) (366, -3.71859557926654820000e-002) (367, -2.55282577127218250000e-002) (368, 1.34313017129898070000e-001) (369, 3.49186182022094730000e-001) (370, 5.41653074324131010000e-002) (371, 4.92641963064670560000e-002) (372, -5.84689155220985410000e-002) (373, 7.33547955751419070000e-002) (374, 2.80972272157669070000e-002) (375, 8.50063785910606380000e-002) (376, -6.44747838377952580000e-002) (377, 6.62380605936050420000e-002) (378, 8.93154963850975040000e-002) (379, 8.83816108107566830000e-002) (380, 4.43691648542881010000e-002) (381, 2.52727448940277100000e-001) (382, 2.82732337713241580000e-001) (383, 2.50261604785919190000e-001) (384, 3.81590992212295530000e-001) (385, 3.66204053163528440000e-001) (386, 1.80407874286174770000e-002) (387, 6.43420144915580750000e-002) (388, -6.80051371455192570000e-003) (389, -8.66161435842514040000e-002) (390, 2.38526728935539720000e-003) (391, -2.27306894958019260000e-002) (392, 5.53759932518005370000e-002) (393, -7.24621117115020750000e-002) (394, -5.26256784796714780000e-002) (395, 1.88259631395339970000e-002) (396, 5.68752922117710110000e-002) (397, -5.49227967858314510000e-002) (398, 9.06118080019950870000e-002) (399, 7.61013776063919070000e-002) (400, 5.19682001322507860000e-003) (401, 9.26720872521400450000e-002) (402, 3.13376843929290770000e-001) (403, 4.14287537336349490000e-001) (404, 2.33916446566581730000e-001) (405, 2.99852699041366580000e-001) (406, 2.91161328554153440000e-001) (407, 3.59160572290420530000e-001) (408, 3.01543384790420530000e-001) (409, 3.18761378526687620000e-001) (410, 3.83525818586349490000e-001) (411, 3.91417652368545530000e-001) (412, 4.06816810369491580000e-001) (413, 4.06627625226974490000e-001) (414, 2.79619544744491580000e-001) (415, 3.12010914087295530000e-001) (416, 3.54747742414474490000e-001) (417, 2.24657461047172550000e-001) (418, 4.35042120516300200000e-002) (419, 3.45913358032703400000e-002) (420, 3.10236620903015140000e+000) (421, -6.72457739710807800000e-002) (422, -8.33468046039342880000e-003) (423, -9.60399657487869260000e-002) (424, 7.24780037999153140000e-002) (425, 3.78405451774597170000e-002) (426, 7.22460821270942690000e-002) (427, 4.77221608161926270000e-002) (428, -2.54162345081567760000e-002) (429, 6.60693049430847170000e-002) (430, -2.04113572835922240000e-002) (431, -3.74767705798149110000e-002) (432, 8.82839784026145940000e-002) (433, -8.26449170708656310000e-002) (434, 1.03032864630222320000e-001) (435, 3.00110250711441040000e-001) (436, 3.26984018087387080000e-001) (437, 2.16142594814300540000e-001) (438, 2.84880369901657100000e-001) (439, 1.36865958571434020000e-001) (440, 3.57367917895317080000e-002) (441, 9.97480303049087520000e-002) (442, 5.97334466874599460000e-002) (443, 1.08030512928962710000e-001) (444, 1.11509516835212710000e-001) (445, 1.56638979911804200000e-001) (446, 5.25007881224155430000e-002) (447, 1.77317738533020020000e-001) (448, 1.47215187549591060000e-001) (449, 1.59849464893341060000e-001) (450, 1.88853383064270020000e-001) (451, 1.27224456518888470000e-002) (452, -6.86375424265861510000e-003) (453, 1.00411675870418550000e-001) (454, -2.21835486590862270000e-002) (455, 1.34487906470894810000e-002) (456, 6.44190050661563870000e-003) (457, -8.24862197041511540000e-002) (458, 4.49245609343051910000e-002) (459, -1.14596821367740630000e-002) (460, -5.02331182360649110000e-002) (461, 1.58618222922086720000e-002) (462, 9.48413163423538210000e-002) (463, -4.90001961588859560000e-002) (464, 2.85083130002021790000e-002) (465, -1.78235024213790890000e-002) (466, 9.02453809976577760000e-002) (467, -2.41100899875164030000e-002) (468, 4.53823246061801910000e-002) (469, -4.51083071529865260000e-002) (470, 6.40268743038177490000e-001) (471, 4.75490726530551910000e-002) (472, -2.48446520417928700000e-002) (473, 1.11668184399604800000e-001) (474, 8.89509022235870360000e-002) (475, 3.58725921250879760000e-003) (476, 1.22950208187103270000e+000) (477, 1.21266233921051030000e+000) (478, 1.26419436931610110000e+000) (479, 1.25020515918731690000e+000) (480, 1.13938379287719730000e+000) (481, 1.22307503223419190000e+000) (482, 1.13971948623657230000e+000) (483, 1.12243437767028810000e+000) (484, 1.16882717609405520000e+000) (485, -6.80879876017570500000e-003) (486, -9.06649306416511540000e-002) (487, -8.25045481324195860000e-002) (488, 1.41384759917855260000e-002) (489, 8.80642756819725040000e-002) (490, 9.29653868079185490000e-002) (491, -5.65524250268936160000e-002) (492, 6.07876218855381010000e-002) (493, 9.34106763452291490000e-003) (494, 4.11831177771091460000e-002) (495, 7.55642205476760860000e-002) (496, -4.51390258967876430000e-003) (497, 2.81521230936050420000e-002) (498, 6.80142343044281010000e-002) (499, 8.94253477454185490000e-002) (500, 3.84365320205688480000e-002) (501, -5.70468232035636900000e-002) (502, 1.00851140916347500000e-001) (503, 1.10999536514282230000e+000) (504, 1.22120726108551030000e+000) (505, 1.14635419845581050000e+000) (506, 1.20658946037292480000e+000) (507, 1.18282246589660640000e+000) (508, -8.39876905083656310000e-002) (509, 5.39394654333591460000e-002) (510, 2.18777209520339970000e-002) (511, -4.59262020885944370000e-002) (512, 6.00857473909854890000e-003) (513, -6.50057718157768250000e-002) (514, 1.02529607713222500000e-001) (515, 1.13862311840057370000e+000) (516, -3.54866147041320800000e+000) (517, 6.19045533239841460000e-002) (518, 8.37307795882225040000e-002) (519, -1.92050114274024960000e-002) (520, 8.03921371698379520000e-002) (521, 7.39651471376419070000e-002) (522, -7.80916884541511540000e-002) (523, 7.48074203729629520000e-002) (524, 7.77981430292129520000e-002) (525, -7.18233957886695860000e-002) (526, -3.42928953468799590000e-002) (527, 8.70266780257225040000e-002) (528, -7.83480480313301090000e-002) (529, 2.11269967257976530000e-002) (530, 1.52981476858258250000e-002) (531, -6.01391084492206570000e-002) (532, -7.47692286968231200000e-002) (533, -4.43920418620109560000e-002) (534, 1.85901019722223280000e-002) (535, -7.34081566333770750000e-002) (536, -6.61144554615020750000e-002) (537, -4.11288328468799590000e-002) (538, -1.37545876204967500000e-002) (539, -3.63192446529865260000e-002) (540, 4.83181513845920560000e-002) (541, 5.67715205252170560000e-002) (542, 4.77565359324216840000e-003) (543, 5.93472160398960110000e-002) (544, 4.38991822302341460000e-002) (545, 1.33022824302315710000e-002) (546, -6.77218362689018250000e-002) (547, 4.65972255915403370000e-003) (548, 6.70864731073379520000e-002) (549, 3.86440753936767580000e-002) (550, -4.52364869415760040000e-002) (551, 9.20742377638816830000e-002) (552, -1.09652625396847720000e-002) (553, -2.62911822646856310000e-002) (554, 8.62820371985435490000e-002) (555, -3.10031082481145860000e-002) (556, 9.88980159163475040000e-002) (557, -4.29965145885944370000e-002) (558, -6.53414102271199230000e-003) (559, 8.91506895422935490000e-002) (560, -2.53512579947710040000e-002) (561, -6.28756582736968990000e-002) (562, 7.57067948579788210000e-002) (563, -3.19164954125881200000e-002) (564, -8.73180478811264040000e-002) (565, 8.00280719995498660000e-002) (566, 7.56823495030403140000e-002) (567, -7.60011002421379090000e-003) (568, 1.22695291042327880000e+000) (569, 1.25670754909515380000e+000) (570, 1.22897315025329590000e+000) (571, 1.26654028892517090000e+000) (572, 1.17384624481201170000e+000) (573, 1.24259626865386960000e+000) (574, 1.21226775646209720000e+000) (575, 5.51871769130229950000e-002) (576, -5.83200529217720030000e-002) (577, -5.74716776609420780000e-002) (578, -7.42013826966285710000e-002) (579, -3.31125520169734950000e-002) (580, -7.41281285881996150000e-002) (581, -6.27511963248252870000e-002) (582, -6.70419856905937190000e-002) (583, 7.18190595507621770000e-002) (584, -6.93246796727180480000e-002) (585, 6.75405189394950870000e-002) (586, -2.59504118002951150000e-003) (587, 4.41578887403011320000e-002) (588, -7.87875130772590640000e-002) (589, -4.55416627228260040000e-002) (590, -1.45601446274667980000e-003) (591, -9.02682021260261540000e-002) (592, -7.88790658116340640000e-002) (593, -8.10314267873764040000e-002) (594, 6.35729953646659850000e-002) (595, 1.73083636909723280000e-002) (596, 9.22168046236038210000e-002) (597, 6.29321336746215820000e-002) (598, 5.30200004577636720000e-002) (599, 1.75930447876453400000e-002) (600, -3.95334325730800630000e-002) (601, 1.66496739257127050000e-003) (602, 6.51353895664215090000e-002) (603, -8.39001610875129700000e-002) (604, 9.70325060188770290000e-003) (605, -2.24377643316984180000e-002) (606, 6.34203329682350160000e-002) (607, -6.88305869698524480000e-002) (608, -2.90112607181072240000e-002) (609, -3.47973778843879700000e-002) (610, 1.29442512989044190000e-002) (611, -3.55664268136024480000e-002) (612, -2.99432855099439620000e-002) (613, 5.67435137927532200000e-002) (614, -1.35511038824915890000e-002) (615, 7.02199265360832210000e-002) (616, 1.00621573626995090000e-001) (617, 1.49014154449105260000e-002) (618, -7.92330577969551090000e-002) (619, -5.23837246000766750000e-002) (620, 4.81045283377170560000e-002) (621, 6.04336299002170560000e-002) (622, 1.12575963139534000000e-002) (623, -9.94457453489303590000e-002) (624, -7.32616782188415530000e-002) (625, -8.75682979822158810000e-002) (626, 2.65299193561077120000e-002) (627, -2.30356715619564060000e-002) (628, 8.16471725702285770000e-002) (629, -4.76130433380603790000e-002) (630, 1.07849620282649990000e-001) (631, 1.01749757304787640000e-002) (632, 8.12871530652046200000e-002) (633, -2.31744945049285890000e-002) (634, -7.86493271589279170000e-002) (635, 8.32568015903234480000e-003) (636, 4.14462834596633910000e-002) (637, -3.09946145862340930000e-002) (638, -6.49514188989996910000e-003) (639, 8.96269734948873520000e-003) (640, -8.39583808556199070000e-004) (641, 9.45645123720169070000e-002) (642, -3.07650491595268250000e-002) (643, 8.59158262610435490000e-002) (644, -5.62228299677371980000e-002) (645, -4.34603579342365260000e-002) (646, 2.18005292117595670000e-002) (647, -3.74950692057609560000e-002) (648, 9.42187458276748660000e-002) (649, 5.95791377127170560000e-002) (650, -1.87960937619209290000e-002) (651, -3.89498658478260040000e-002) (652, 8.91995057463645940000e-002) (653, 9.60781648755073550000e-002) (654, 1.81790180504322050000e-002) (655, -2.63827368617057800000e-002) (656, -7.63885118067264560000e-003) (657, 3.00503522157669070000e-002) (658, 8.78445133566856380000e-002) (659, -5.60214221477508540000e-002) (660, -3.92123349010944370000e-002) (661, 3.35049107670784000000e-002) (662, -9.05489698052406310000e-002) (663, -9.13973525166511540000e-002) (664, 2.35868454910814760000e-003) (665, 3.09719499200582500000e-002) (666, -3.50253172218799590000e-002) (667, -4.51022274792194370000e-002) (668, -5.22899851202964780000e-002) (669, -9.87072139978408810000e-002) (670, 8.98181200027465820000e-002) (671, -4.77084107697010040000e-002) (672, -8.18026438355445860000e-002) (673, -5.64853064715862270000e-002) (674, 4.48879636824131010000e-002) (675, 6.96255192160606380000e-002) (676, -7.36971572041511540000e-002) (677, -8.88338759541511540000e-002) (678, -5.07845915853977200000e-002) (679, -1.48532204329967500000e-002) (680, -5.69552704691886900000e-002) (681, 2.45388261973857880000e-002) (682, -4.22640927135944370000e-002) (683, -4.67865169048309330000e-003) (684, -3.96334715187549590000e-002) (685, -3.62276919186115260000e-002) (686, -3.78756411373615260000e-002) (687, -7.12557509541511540000e-002) (688, 8.16738754510879520000e-002) (689, -5.60741797089576720000e-002) (690, -9.26636066287755970000e-003) (691, 6.40795752406120300000e-002) (692, -2.87997312843799590000e-002) (693, -7.18966200947761540000e-002) (694, -6.11666664481163020000e-002) (695, 9.09692794084548950000e-003) (696, -4.94113005697727200000e-002) (697, 3.26277345418930050000e-001) (698, 1.62343159317970280000e-002) (699, -4.61527425795793530000e-003) (700, -7.59493783116340640000e-002) (701, -6.27047717571258540000e-002) (702, -6.83931633830070500000e-003) (703, -5.50875701010227200000e-002) (704, 1.32046509534120560000e-002) (705, 9.30508002638816830000e-002) (706, -6.67880102992057800000e-002) (707, 6.47265389561653140000e-002) (708, 7.57800489664077760000e-002) (709, 5.29629029333591460000e-002) (710, -2.14144960045814510000e-002) (711, 6.08791746199131010000e-002) (712, 3.99685539305210110000e-002) (713, -8.54830518364906310000e-002) (714, 8.61660465598106380000e-002) (715, -6.94308802485466000000e-003) (716, 8.37185606360435490000e-002) (717, 4.71767820417881010000e-002) (718, -5.78219592571258540000e-002) (719, -7.40511789917945860000e-002) (720, -6.43036933615803720000e-003) (721, -4.19528074562549590000e-002) (722, -1.70056074857711790000e-002) (723, -7.33227133750915530000e-002) (724, 2.36926153302192690000e-002) (725, -9.77367609739303590000e-002) (726, -3.73654742725193500000e-003) (727, -9.06139463186264040000e-002) (728, -6.81957602500915530000e-002) (729, 3.76940965652465820000e-002) (730, -7.48912990093231200000e-002) (731, -2.58984155952930450000e-002) (732, 1.40063324943184850000e-002) (733, 7.18188360333442690000e-002) (734, 5.12561202049255370000e-002) (735, -9.47787240147590640000e-002) (736, -2.10421755909919740000e-002) (737, -9.83776301145553590000e-002) (738, -2.00573652982711790000e-002) (739, 7.67504721879959110000e-002) (740, 8.35070759057998660000e-002) (741, 1.51641271077096460000e-003) (742, -9.88415032625198360000e-002) (743, 6.59289360046386720000e-002) (744, 6.32811430841684340000e-003) (745, -9.17369872331619260000e-002) (746, 5.12927174568176270000e-002) (747, -7.91027098894119260000e-002) (748, -1.23690720647573470000e-002) (749, 1.11660435795784000000e-002) (750, 6.41966704279184340000e-003) (751, 4.20398116111755370000e-002) (752, -8.12938958406448360000e-002) (753, -1.00226983428001400000e-001) (754, -5.42758181691169740000e-002) (755, -6.15511760115623470000e-002) (756, -2.95785963535308840000e-002) (757, -5.93349076807498930000e-002) (758, 7.55893811583518980000e-002) (759, -2.64536216855049130000e-002) (760, -7.30689521878957750000e-003) (761, -2.84457113593816760000e-002) (762, 2.77819707989692690000e-002) (763, 3.80522967316210270000e-003) (764, 2.85390280187129970000e-002) (765, 3.93154658377170560000e-002) (766, 2.65103094279766080000e-002) (767, 7.56396725773811340000e-002) (768, -8.35116282105445860000e-002) (769, -6.16281554102897640000e-002) (770, 1.65456309914588930000e-002) (771, -6.85681477189064030000e-002) (772, -6.40637502074241640000e-002) (773, 5.76503910124301910000e-002) (774, 7.89294391870498660000e-002) (775, 2.22339145839214320000e-002) (776, 9.19301435351371770000e-002) (777, -1.85676652472466230000e-003) (778, 2.65306588262319560000e-002) (779, 8.42626206576824190000e-003) (780, -9.27682891488075260000e-002) (781, 2.40984209813177590000e-003) (782, -6.23732572421431540000e-003) (783, -8.54867771267890930000e-002) (784, 8.85746702551841740000e-002) (785, 4.12174947559833530000e-002) (786, 7.78722763061523440000e-003) (787, -7.01113790273666380000e-002) (788, -6.86526447534561160000e-002) (789, 6.18635043501853940000e-002) (790, 7.95040205121040340000e-002) (791, 5.84468953311443330000e-002) (792, -5.22708036005496980000e-002) (793, -6.49186819791793820000e-002) (794, 1.07230916619300840000e-001) (795, -9.96127817779779430000e-003) (796, 3.91597636044025420000e-002) (797, 1.19305904954671860000e-002) (798, -3.75441811047494410000e-003) (799, 6.58735260367393490000e-002) (800, -5.75813055038452150000e-002) (801, -8.24287086725234990000e-002) (802, 9.23139005899429320000e-002) (803, 6.46419674158096310000e-002) (804, 1.07024386525154110000e-001) (805, 1.04671716690063480000e-002) (806, 2.26681325584650040000e-002) (807, 7.78739601373672490000e-002) (808, -8.69335308670997620000e-002) (809, 1.07708409428596500000e-001) (810, -8.50865896791219710000e-003) (811, 7.14042410254478450000e-002) (812, -8.80203861743211750000e-003) (813, 5.37716262042522430000e-002) (814, 4.04537171125411990000e-002) (815, 7.36751630902290340000e-002) (816, 8.20126011967659000000e-002) (817, -3.03835961967706680000e-002) (818, 4.59084734320640560000e-002) (819, -3.66213731467723850000e-002) (820, 2.90693864226341250000e-002) (821, -1.14636188372969630000e-002) (822, 1.80424839258193970000e-001) (823, 4.86067645251750950000e-002) (824, 1.13334633409976960000e-001) (825, 2.62601137161254880000e-001) (826, 2.26685985922813420000e-001) (827, 3.90252023935317990000e-001) (828, 3.46843779087066650000e-001) (829, 7.03005015850067140000e-001) (830, 2.95450031757354740000e-001) (831, 2.54965186119079590000e-001) (832, 5.39959430694580080000e-001) (833, 1.11066639423370360000e+000) (834, 5.34245133399963380000e-001) (835, 1.13889515399932860000e+000) (836, 1.16031599044799800000e+000) (837, 1.28108501434326170000e+000) (838, 1.13570523262023930000e+000) (839, 1.23914170265197750000e+000) (840, 1.27165067195892330000e+000) (841, -4.41234931349754330000e-002) (0, 4.52411115169525150000e-001) (1, 4.13946807384490970000e-001) (2, 5.09180188179016110000e-001) (3, 5.03406167030334470000e-001) (4, 5.16660392284393310000e-001) (5, 6.24257266521453860000e-001) (6, -3.76694388687610630000e-002) (7, 1.28485605120658870000e-001) (8, 8.40748026967048650000e-002) (9, -1.06632709503173830000e-002) (10, 5.72480857372283940000e-001) (11, -3.62927205860614780000e-002) (12, 1.38823971152305600000e-001) (13, 2.23551511764526370000e-001) (14, 5.10733842849731450000e-001) (15, 2.71395444869995120000e-001) (16, 3.33521872758865360000e-001) (17, 4.86037015914916990000e-001) (18, 3.49660009145736690000e-001) (19, 3.40169042348861690000e-001) (20, 5.76060712337493900000e-001) (21, 6.25997126102447510000e-001) (22, 4.57020461559295650000e-001) (23, 4.87028479576110840000e-001) (24, 4.44233655929565430000e-001) (25, 3.53806614875793460000e-001) (26, 4.96317565441131590000e-001) (27, 5.08360028266906740000e-001) (28, 3.69095146656036380000e-001) (29, 4.49045121669769290000e-001) (30, 3.63186955451965330000e-001) (31, 5.36032915115356450000e-001) (32, 4.39932584762573240000e-001) (33, 4.56161856651306150000e-001) (34, 5.38022637367248540000e-001) (35, 4.57706034183502200000e-001) (36, 4.32059049606323240000e-001) (37, 5.21183073520660400000e-001) (38, 4.80050951242446900000e-001) (39, 4.36355948448181150000e-001) (40, 4.33877885341644290000e-001) (41, 4.46597635746002200000e-001) (42, 4.78769212961196900000e-001) (43, 4.18548822402954100000e-001) (44, 4.96365636587142940000e-001) (45, 3.61203312873840330000e-001) (46, 4.08575654029846190000e-001) (47, 5.22748589515686040000e-001) (48, 5.27295649051666260000e-001) (49, 3.86456489562988280000e-001) (50, 5.48676252365112300000e-001) (51, 4.68585431575775150000e-001) (52, 5.12097716331481930000e-001) (53, 3.96988213062286380000e-001) (54, 4.66659903526306150000e-001) (55, 5.17029643058776860000e-001) (56, 4.82568651437759400000e-001) (57, 4.07284915447235110000e-001) (58, 4.63193058967590330000e-001) (59, 4.67395246028900150000e-001) (60, 5.44776082038879390000e-001) (61, 4.87146228551864620000e-001) (62, 4.64941620826721190000e-001) (63, 4.31585967540740970000e-001) (64, 3.87317121028900150000e-001) (65, 3.85833978652954100000e-001) (66, 3.95001411437988280000e-001) (67, 4.47790741920471190000e-001) (68, 4.65240716934204100000e-001) (69, 5.35327851772308350000e-001) (70, 5.08075416088104250000e-001) (71, 4.89904969930648800000e-001) (72, 3.96826386451721190000e-001) (73, 3.60931634902954100000e-001) (74, 3.87726068496704100000e-001) (75, 5.28845906257629390000e-001) (76, 3.98575127124786380000e-001) (77, 4.83456701040267940000e-001) (78, 3.70813190937042240000e-001) (79, 4.02136445045471190000e-001) (80, 5.31446039676666260000e-001) (81, 4.25183355808258060000e-001) (82, 5.44544160366058350000e-001) (83, 5.47901093959808350000e-001) (84, 4.63965058326721190000e-001) (85, 4.06018257141113280000e-001) (86, 3.97195756435394290000e-001) (87, 3.53604435920715330000e-001) (88, 4.86996740102767940000e-001) (89, 4.45801019668579100000e-001) (90, 5.45874714851379390000e-001) (91, 4.17645514011383060000e-001) (92, 4.43719744682312010000e-001) (93, 4.69378888607025150000e-001) (94, 4.96649473905563350000e-001) (95, 3.54321509599685670000e-001) (96, 5.06140649318695070000e-001) (97, 5.46362996101379390000e-001) (98, 4.22018766403198240000e-001) (99, 4.02096867561340330000e-001) (100, 3.97033929824829100000e-001) (101, 5.30042231082916260000e-001) (102, 4.69244599342346190000e-001) (103, 4.23578143119812010000e-001) (104, 3.84887933731079100000e-001) (105, 5.07599353790283200000e-001) (106, 3.80780220031738280000e-001) (107, 3.53625714778900150000e-001) (108, 4.08996820449829100000e-001) (109, 3.67914021015167240000e-001) (110, 4.75763201713562010000e-001) (111, 4.13418948650360110000e-001) (112, 4.17898893356323240000e-001) (113, 4.87185984849929810000e-001) (114, 3.70221138000488280000e-001) (115, 3.85083198547363280000e-001) (116, 3.94461393356323240000e-001) (117, 4.74612802267074580000e-001) (118, 4.36911344528198240000e-001) (119, 4.97153073549270630000e-001) (120, 5.08914768695831300000e-001) (121, 4.94485765695571900000e-001) (122, 3.46940159797668460000e-001) (123, 3.47434580326080320000e-001) (124, 3.17655533552169800000e-001) (125, 3.58003824949264530000e-001) (126, 4.90675896406173710000e-001) (127, 3.58981609344482420000e-001) (128, 4.88189905881881710000e-001) (129, 5.36377668380737300000e-001) (130, 5.09164988994598390000e-001) (131, 3.72226238250732420000e-001) (132, 3.76517057418823240000e-001) (133, 5.08115172386169430000e-001) (134, 4.05203580856323240000e-001) (135, 3.62430095672607420000e-001) (136, 4.34185385704040530000e-001) (137, 2.00320758819580080000e+001) (138, 3.98891299962997440000e-001) (139, 3.83144229650497440000e-001) (140, 3.40077787637710570000e-001) (141, 4.24465030431747440000e-001) (142, 3.52925688028335570000e-001) (143, 4.13937747478485110000e-001) (144, 5.18549382686614990000e-001) (145, 4.98675733804702760000e-001) (146, 5.50940632820129390000e-001) (147, 4.48404252529144290000e-001) (148, 5.42759001255035400000e-001) (149, 3.89163494110107420000e-001) (150, 5.30576348304748540000e-001) (151, 3.57364177703857420000e-001) (152, 5.45310258865356450000e-001) (153, 4.12356913089752200000e-001) (154, 5.11020541191101070000e-001) (155, 4.38168644905090330000e-001) (156, 5.19669413566589360000e-001) (157, 3.89383256435394290000e-001) (158, 4.28512930870056150000e-001) (159, 4.93527501821517940000e-001) (160, -2.04968986511230470000e+001) (161, 3.73752117156982420000e-001) (162, 4.34814691543579100000e-001) (163, 4.73083734512329100000e-001) (164, 5.26990473270416260000e-001) (165, 4.15561258792877200000e-001) (166, 3.75839531421661380000e-001) (167, 4.24734830856323240000e-001) (168, 4.04001176357269290000e-001) (169, 4.42941606044769290000e-001) (170, 4.32144522666931150000e-001) (171, 5.37754118442535400000e-001) (172, 5.27347624301910400000e-001) (173, 3.61099541187286380000e-001) (174, 3.86905193328857420000e-001) (175, 4.24319803714752200000e-001) (176, 3.79587113857269290000e-001) (177, 3.75198662281036380000e-001) (178, 5.12204587459564210000e-001) (179, 5.05362570285797120000e-001) (180, 4.86313194036483760000e-001) (181, 4.43326115608215330000e-001) (182, 4.35205340385437010000e-001) (183, 5.37146687507629390000e-001) (184, 4.61401581764221190000e-001) (185, 4.65756535530090330000e-001) (186, 3.65329265594482420000e-001) (187, 5.34842729568481450000e-001) (188, 5.41434526443481450000e-001) (189, 5.16825199127197270000e-001) (190, 4.83590990304946900000e-001) (191, 3.69204998016357420000e-001) (192, 4.60367143154144290000e-001) (193, 5.25601983070373540000e-001) (194, 4.65616166591644290000e-001) (195, 4.82840269804000850000e-001) (196, 4.86056834459304810000e-001) (197, 5.11673629283905030000e-001) (198, 4.29306387901306150000e-001) (199, 4.92050498723983760000e-001) (200, 3.59494328498840330000e-001) (201, 3.82229924201965330000e-001) (202, 3.62564384937286380000e-001) (203, 4.04739737510681150000e-001) (204, 4.42276358604431150000e-001) (205, 4.02740716934204100000e-001) (206, 3.60248029232025150000e-001) (207, 4.58410859107971190000e-001) (208, 4.45413529872894290000e-001) (209, 5.05478560924530030000e-001) (210, 4.03744816780090330000e-001) (211, 3.86734306812286380000e-001) (212, 3.64828824996948240000e-001) (213, 4.68014836311340330000e-001) (214, 4.90109533071517940000e-001) (215, 3.96701335906982420000e-001) (216, 3.54703068733215330000e-001) (217, 3.58243107795715330000e-001) (218, 4.82461839914321900000e-001) (219, 5.02823412418365480000e-001) (220, 3.69992375373840330000e-001) (221, 3.61777067184448240000e-001) (222, 3.72464299201965330000e-001) (223, 3.84506523609161380000e-001) (224, 4.76595133543014530000e-001) (225, 4.39583480358123780000e-001) (226, 3.77681583166122440000e-001) (227, 5.02838611602783200000e-001) (228, 4.89505320787429810000e-001) (229, 3.98968696594238280000e-001) (230, 4.32000994682312010000e-001) (231, 4.39172625541687010000e-001) (232, 3.88995587825775150000e-001) (233, 4.49112296104431150000e-001) (234, 5.15299260616302490000e-001) (235, 3.89541923999786380000e-001) (236, 4.49466288089752200000e-001) (237, 4.18497025966644290000e-001) (238, 3.74673783779144290000e-001) (239, 4.87350791692733760000e-001) (240, 3.92691373825073240000e-001) (241, 4.85519737005233760000e-001) (242, 4.63565409183502200000e-001) (243, 4.10544157028198240000e-001) (244, 4.74240452051162720000e-001) (245, 4.25387918949127200000e-001) (246, 4.76785629987716670000e-001) (247, 5.13425350189208980000e-001) (248, 4.14902091026306150000e-001) (249, 4.24624979496002200000e-001) (250, 5.07974803447723390000e-001) (251, 4.55435514450073240000e-001) (252, 7.13008821010589600000e-001) (253, 4.34885621070861820000e-001) (254, 3.91217231750488280000e-001) (255, 5.25153279304504390000e-001) (256, 5.33148884773254390000e-001) (257, 5.37494599819183350000e-001) (258, 3.66302728652954100000e-001) (259, 4.73761200904846190000e-001) (260, 5.11420130729675290000e-001) (261, 3.87271404266357420000e-001) (262, 4.32602286338806150000e-001) (263, 4.98172342777252200000e-001) (264, 3.74392986297607420000e-001) (265, 3.94015789031982420000e-001) (266, 4.89035338163375850000e-001) (267, 5.46109795570373540000e-001) (268, 4.37063932418823240000e-001) (269, 4.11923587322235110000e-001) (270, 5.41367411613464360000e-001) (271, 4.99472439289093020000e-001) (272, 3.60348820686340330000e-001) (273, 3.48587363958358760000e-001) (274, 4.41904008388519290000e-001) (275, 3.76053154468536380000e-001) (276, 4.66751456260681150000e-001) (277, 3.76131266355514530000e-001) (278, 3.26289921998977660000e-001) (279, 4.34274435043334960000e-001) (280, 4.76260542869567870000e-001) (281, 4.43240523338317870000e-001) (282, 4.05935823917388920000e-001) (283, 3.99527192115783690000e-001) (284, 4.56045687198638920000e-001) (285, 4.15341556072235110000e-001) (286, 4.24206793308258060000e-001) (287, 5.40149629116058350000e-001) (288, 4.86914247274398800000e-001) (289, 4.58050787448883060000e-001) (290, 5.24701654911041260000e-001) (291, 4.41485822200775150000e-001) (292, 4.64145243167877200000e-001) (293, 3.53573918342590330000e-001) (294, 5.21976530551910400000e-001) (295, 5.18326640129089360000e-001) (296, 4.89749461412429810000e-001) (297, 3.98636162281036380000e-001) (298, 3.88699650764465330000e-001) (299, 4.09653067588806150000e-001) (300, 4.49447989463806150000e-001) (301, 4.93881553411483760000e-001) (302, 3.53793621063232420000e-001) (303, 4.40402567386627200000e-001) (304, 5.43546319007873540000e-001) (305, 3.59170854091644290000e-001) (306, 3.62532645463943480000e-001) (307, 3.31062883138656620000e-001) (308, 3.18086832761764530000e-001) (309, 3.81437838077545170000e-001) (310, 4.51194941997528080000e-001) (311, 3.59026491641998290000e-001) (312, 3.00872206687927250000e-001) (313, 2.89263367652893070000e-001) (314, 3.12261343002319340000e-001) (315, 2.88793385028839110000e-001) (316, 3.77780437469482420000e-001) (317, 4.63641583919525150000e-001) (318, 3.80005121231079100000e-001) (319, 3.77728462219238280000e-001) (320, 3.99890363216400150000e-001) (321, 4.20099139213562010000e-001) (322, 4.01202619075775150000e-001) (323, 5.27161359786987300000e-001) (324, 4.58215594291687010000e-001) (325, 4.82174962759017940000e-001) (326, 3.73282194137573240000e-001) (327, 5.06180465221405030000e-001) (328, 5.41440606117248540000e-001) (329, 4.75912839174270630000e-001) (330, 4.25479471683502200000e-001) (331, 3.96622002124786380000e-001) (332, 4.87253099679946900000e-001) (333, 5.12467086315155030000e-001) (334, 5.17673552036285400000e-001) (335, 4.43002641201019290000e-001) (336, 6.06709480285644530000e-001) (337, 2.69389182329177860000e-001) (338, 3.42735052108764650000e-001) (339, 4.01692986488342290000e-001) (340, 3.57314288616180420000e-001) (341, 3.50136578083038330000e-001) (342, 3.86684477329254150000e-001) (343, 3.49867999553680420000e-001) (344, 3.88222575187683110000e-001) (345, 3.50270867347717290000e-001) (346, 3.50283086299896240000e-001) (347, 2.39321038126945500000e-001) (348, 3.62307012081146240000e-001) (349, 3.51046025753021240000e-001) (350, 5.59114634990692140000e-001) (351, 4.55221086740493770000e-001) (352, 5.51630377769470210000e-001) (353, 4.35016095638275150000e-001) (354, 4.11676287651062010000e-001) (355, 5.33173322677612300000e-001) (356, 5.18482208251953130000e-001) (357, 5.00598490238189700000e-001) (358, 4.77923840284347530000e-001) (359, 4.61535871028900150000e-001) (360, 4.04046833515167240000e-001) (361, 4.70035135746002200000e-001) (362, 5.16800820827484130000e-001) (363, 4.04721438884735110000e-001) (364, 2.27076053619384770000e-001) (365, 4.47024881839752200000e-001) (366, 5.44962346553802490000e-001) (367, 4.21371817588806150000e-001) (368, 3.83436143398284910000e-001) (369, 3.28407287597656250000e-001) (370, 3.84238004684448240000e-001) (371, 5.34214079380035400000e-001) (372, 4.08609330654144290000e-001) (373, 4.18625235557556150000e-001) (374, 3.70523393154144290000e-001) (375, 4.24356400966644290000e-001) (376, 4.68161344528198240000e-001) (377, 4.19205069541931150000e-001) (378, 5.23667216300964360000e-001) (379, 4.22574222087860110000e-001) (380, 5.33786833286285400000e-001) (381, 4.33892279863357540000e-001) (382, 3.87627571821212770000e-001) (383, 2.81804859638214110000e-001) (384, 3.63909333944320680000e-001) (385, 4.31420356035232540000e-001) (386, 4.78247314691543580000e-001) (387, 5.43164789676666260000e-001) (388, 4.50000226497650150000e-001) (389, 4.49640154838562010000e-001) (390, 5.15552520751953130000e-001) (391, 5.47455549240112300000e-001) (392, 3.90454292297363280000e-001) (393, 4.62427020072937010000e-001) (394, 4.92340296506881710000e-001) (395, 4.12912309169769290000e-001) (396, 4.22915995121002200000e-001) (397, 4.08145487308502200000e-001) (398, 3.53319615125656130000e-001) (399, 4.70883488655090330000e-001) (400, 3.81778240203857420000e-001) (401, 3.55606824159622190000e-001) (402, 3.55354309082031250000e-001) (403, 3.76189619302749630000e-001) (404, 2.72478640079498290000e-001) (405, 3.57518941164016720000e-001) (406, 3.49706441164016720000e-001) (407, 4.24071758985519410000e-001) (408, 3.69591683149337770000e-001) (409, 3.63036543130874630000e-001) (410, 3.85149568319320680000e-001) (411, 3.34032624959945680000e-001) (412, 2.74041205644607540000e-001) (413, 2.97039270401000980000e-001) (414, 3.89892011880874630000e-001) (415, 2.53032743930816650000e-001) (416, 2.56786435842514040000e-001) (417, 3.11205476522445680000e-001) (418, 3.90572220087051390000e-001) (419, 5.16037821769714360000e-001) (420, -2.47209206223487850000e-001) (421, 5.13346016407012940000e-001) (422, 3.84085416793823240000e-001) (423, 5.26233613491058350000e-001) (424, 4.87750440835952760000e-001) (425, 5.47809541225433350000e-001) (426, 4.70050275325775150000e-001) (427, 4.87378150224685670000e-001) (428, 5.09283900260925290000e-001) (429, 4.43677008152008060000e-001) (430, 4.74872052669525150000e-001) (431, 4.74133551120758060000e-001) (432, 5.03793895244598390000e-001) (433, 4.60507512092590330000e-001) (434, 3.73551696538925170000e-001) (435, 3.05022567510604860000e-001) (436, 3.54253500699996950000e-001) (437, 3.12083512544631960000e-001) (438, 3.20854276418685910000e-001) (439, 4.20511960983276370000e-001) (440, 4.26310300827026370000e-001) (441, 3.29219609498977660000e-001) (442, 4.42903757095336910000e-001) (443, 3.99672538042068480000e-001) (444, 4.55727219581604000000e-001) (445, 3.49037736654281620000e-001) (446, 4.63112473487854000000e-001) (447, 5.03584921360015870000e-001) (448, 4.39839780330657960000e-001) (449, 3.40779691934585570000e-001) (450, 3.60689371824264530000e-001) (451, 5.09921848773956300000e-001) (452, 4.98379796743392940000e-001) (453, 4.18967008590698240000e-001) (454, 3.99637162685394290000e-001) (455, 5.29422819614410400000e-001) (456, 5.27298808097839360000e-001) (457, 4.64108586311340330000e-001) (458, 4.86105650663375850000e-001) (459, 3.51620823144912720000e-001) (460, 3.80121052265167240000e-001) (461, 5.14722347259521480000e-001) (462, 4.26678717136383060000e-001) (463, 4.77008283138275150000e-001) (464, 4.66919183731079100000e-001) (465, 4.75970685482025150000e-001) (466, 4.08050775527954100000e-001) (467, 5.47309041023254390000e-001) (468, 3.77469182014465330000e-001) (469, 4.25912797451019290000e-001) (470, 3.57339352369308470000e-001) (471, 4.17642533779144290000e-001) (472, 3.79580974578857420000e-001) (473, 4.12709623575210570000e-001) (474, 4.27644938230514530000e-001) (475, 4.42958712577819820000e-001) (476, 6.54360115528106690000e-001) (477, 7.08394467830657960000e-001) (478, 6.20919048786163330000e-001) (479, 5.61726987361907960000e-001) (480, 6.97396099567413330000e-001) (481, 7.36318171024322510000e-001) (482, 6.21138751506805420000e-001) (483, 6.43868267536163330000e-001) (484, 5.98268806934356690000e-001) (485, 4.07052934169769290000e-001) (486, 4.66635465621948240000e-001) (487, 4.87802416086196900000e-001) (488, 4.14676249027252200000e-001) (489, 3.92502129077911380000e-001) (490, 4.94925230741500850000e-001) (491, 4.46298539638519290000e-001) (492, 4.17312979698181150000e-001) (493, 5.25632500648498540000e-001) (494, 5.46262383460998540000e-001) (495, 5.18607378005981450000e-001) (496, 3.85855436325073240000e-001) (497, 4.70230460166931150000e-001) (498, 5.41886210441589360000e-001) (499, 5.03232300281524660000e-001) (500, 5.38199663162231450000e-001) (501, 4.32449698448181150000e-001) (502, 3.83755803108215330000e-001) (503, 6.30721271038055420000e-001) (504, 6.56972467899322510000e-001) (505, 7.03993976116180420000e-001) (506, 7.40590631961822510000e-001) (507, 7.32900202274322510000e-001) (508, 4.46847856044769290000e-001) (509, 3.61960172653198240000e-001) (510, 4.20279264450073240000e-001) (511, 4.74087864160537720000e-001) (512, 4.07132327556610110000e-001) (513, 4.82321470975875850000e-001) (514, 4.60623502731323240000e-001) (515, 7.45804488658905030000e-001) (516, 1.08846771717071530000e+000) (517, 4.55386698246002200000e-001) (518, 5.01718640327453610000e-001) (519, 4.95437949895858760000e-001) (520, 4.93759483098983760000e-001) (521, 5.27433037757873540000e-001) (522, 5.39194524288177490000e-001) (523, 4.69388127326965330000e-001) (524, 3.70975017547607420000e-001) (525, 5.23984551429748540000e-001) (526, 3.88809502124786380000e-001) (527, 4.31290030479431150000e-001) (528, 4.67477738857269290000e-001) (529, 5.44516801834106450000e-001) (530, 4.27188456058502200000e-001) (531, 5.31970918178558350000e-001) (532, 4.30603265762329100000e-001) (533, 5.43329596519470210000e-001) (534, 4.98321712017059330000e-001) (535, 4.96722728013992310000e-001) (536, 3.82763862609863280000e-001) (537, 3.60727250576019290000e-001) (538, 5.25138139724731450000e-001) (539, 4.55661356449127200000e-001) (540, 3.75131547451019290000e-001) (541, 4.36648905277252200000e-001) (542, 4.33224856853485110000e-001) (543, 4.77328866720199580000e-001) (544, 4.11783158779144290000e-001) (545, 4.03354167938232420000e-001) (546, 3.58206510543823240000e-001) (547, 4.61844205856323240000e-001) (548, 4.75546628236770630000e-001) (549, 4.72995370626449580000e-001) (550, 4.27786588668823240000e-001) (551, 4.33621525764465330000e-001) (552, 3.70645463466644290000e-001) (553, 5.00601649284362790000e-001) (554, 3.73849809169769290000e-001) (555, 4.06088590621948240000e-001) (556, 5.29508233070373540000e-001) (557, 4.70627188682556150000e-001) (558, 4.97799962759017940000e-001) (559, 4.10660147666931150000e-001) (560, 3.50967735052108760000e-001) (561, 4.07339811325073240000e-001) (562, 3.70446979999542240000e-001) (563, 5.46082258224487300000e-001) (564, 5.01141726970672610000e-001) (565, 4.21234369277954100000e-001) (566, 5.11676549911499020000e-001) (567, 3.68561029434204100000e-001) (568, 4.53059852123260500000e-001) (569, 4.42787647247314450000e-001) (570, 5.01918435096740720000e-001) (571, 3.49641799926757810000e-001) (572, 5.00948011875152590000e-001) (573, 3.54158401489257810000e-001) (574, 4.01570618152618410000e-001) (575, 3.66719275712966920000e-001) (576, 3.86412888765335080000e-001) (577, 5.31341254711151120000e-001) (578, 4.75292325019836430000e-001) (579, 4.01665538549423220000e-001) (580, 3.64586681127548220000e-001) (581, 4.99614834785461430000e-001) (582, 3.73442918062210080000e-001) (583, 3.64342540502548220000e-001) (584, 5.07128357887268070000e-001) (585, 3.74376744031906130000e-001) (586, 4.59508627653121950000e-001) (587, 5.22295832633972170000e-001) (588, 5.43534159660339360000e-001) (589, 4.63669180870056150000e-001) (590, 4.28940176963806150000e-001) (591, 4.39590811729431150000e-001) (592, 5.37741899490356450000e-001) (593, 4.10437226295471190000e-001) (594, 3.72430622577667240000e-001) (595, 3.63318085670471190000e-001) (596, 3.70501935482025150000e-001) (597, 4.78064209222793580000e-001) (598, 4.62091326713562010000e-001) (599, 4.01748955249786380000e-001) (600, 5.17449676990509030000e-001) (601, 4.68151271343231200000e-001) (602, 5.24645745754241940000e-001) (603, 4.61333632469177250000e-001) (604, 4.90111678838729860000e-001) (605, 5.15270769596099850000e-001) (606, 5.21209478378295900000e-001) (607, 5.11425435543060300000e-001) (608, 4.59954202175140380000e-001) (609, 5.27038335800170900000e-001) (610, 4.77129489183425900000e-001) (611, 4.04784560203552250000e-001) (612, 4.90840166807174680000e-001) (613, 5.03879666328430180000e-001) (614, 4.73455220460891720000e-001) (615, 5.32519221305847170000e-001) (616, 4.22930270433425900000e-001) (617, 4.44638371467590330000e-001) (618, 3.65286588668823240000e-001) (619, 3.67398381233215330000e-001) (620, 4.19943571090698240000e-001) (621, 5.32444059848785400000e-001) (622, 5.44199407100677490000e-001) (623, 4.88177686929702760000e-001) (624, 3.91461372375488280000e-001) (625, 5.18836200237274170000e-001) (626, 3.59963744878768920000e-001) (627, 4.70153123140335080000e-001) (628, 3.99451971054077150000e-001) (629, 4.40797209739685060000e-001) (630, 3.77906560897827150000e-001) (631, 5.38502573966979980000e-001) (632, 3.75337243080139160000e-001) (633, 5.10499954223632810000e-001) (634, 4.77729827165603640000e-001) (635, 4.42921519279479980000e-001) (636, 4.92861211299896240000e-001) (637, 3.81920665502548220000e-001) (638, 5.24194061756134030000e-001) (639, 4.75082784891128540000e-001) (640, 4.23404276371002200000e-001) (641, 4.88266319036483760000e-001) (642, 5.41037797927856450000e-001) (643, 4.10055875778198240000e-001) (644, 5.12699007987976070000e-001) (645, 4.00595426559448240000e-001) (646, 4.80676561594009400000e-001) (647, 3.69195759296417240000e-001) (648, 4.98901635408401490000e-001) (649, 4.35135245323181150000e-001) (650, 3.63186955451965330000e-001) (651, 3.68667900562286380000e-001) (652, 5.21878838539123540000e-001) (653, 4.37552213668823240000e-001) (654, 4.11783158779144290000e-001) (655, 4.83810752630233760000e-001) (656, 5.08060276508331300000e-001) (657, 5.40793657302856450000e-001) (658, 5.46769022941589360000e-001) (659, 4.54507768154144290000e-001) (660, 5.39737761020660400000e-001) (661, 4.02383744716644290000e-001) (662, 5.28452336788177490000e-001) (663, 5.01071631908416750000e-001) (664, 3.52121293544769290000e-001) (665, 5.28110563755035400000e-001) (666, 4.05215799808502200000e-001) (667, 4.81216758489608760000e-001) (668, 4.69604730606079100000e-001) (669, 3.94232392311096190000e-001) (670, 3.95782709121704100000e-001) (671, 3.86123955249786380000e-001) (672, 5.12473165988922120000e-001) (673, 5.32590508460998540000e-001) (674, 5.39078593254089360000e-001) (675, 4.26047086715698240000e-001) (676, 4.25058305263519290000e-001) (677, 4.10660147666931150000e-001) (678, 5.18717229366302490000e-001) (679, 4.61575627326965330000e-001) (680, 5.47043681144714360000e-001) (681, 5.03116369247436520000e-001) (682, 4.33694779872894290000e-001) (683, 4.36868607997894290000e-001) (684, 3.68710637092590330000e-001) (685, 4.70840811729431150000e-001) (686, 4.06161844730377200000e-001) (687, 3.71078789234161380000e-001) (688, 3.75686943531036380000e-001) (689, 5.33771455287933350000e-001) (690, 4.87848132848739620000e-001) (691, 3.70221138000488280000e-001) (692, 4.56247270107269290000e-001) (693, 5.43930888175964360000e-001) (694, 5.46195268630981450000e-001) (695, 3.73819291591644290000e-001) (696, 3.96603703498840330000e-001) (697, 3.89425247907638550000e-001) (698, 4.30895358324050900000e-001) (699, 4.17791098356246950000e-001) (700, 4.95254844427108760000e-001) (701, 4.92325156927108760000e-001) (702, 4.96188670396804810000e-001) (703, 3.64078044891357420000e-001) (704, 4.27756071090698240000e-001) (705, 4.17428910732269290000e-001) (706, 4.58145499229431150000e-001) (707, 3.57184082269668580000e-001) (708, 3.99139642715454100000e-001) (709, 5.03922104835510250000e-001) (710, 3.61990690231323240000e-001) (711, 4.15738284587860110000e-001) (712, 4.73245590925216670000e-001) (713, 4.36532914638519290000e-001) (714, 4.62991654872894290000e-001) (715, 3.63461613655090330000e-001) (716, 4.36087369918823240000e-001) (717, 4.55398917198181150000e-001) (718, 5.08048057556152340000e-001) (719, 4.51846659183502200000e-001) (720, 5.14756023883819580000e-001) (721, 5.44565618038177490000e-001) (722, 4.01123285293579100000e-001) (723, 5.42639851570129390000e-001) (724, 3.98858845233917240000e-001) (725, 4.06530976295471190000e-001) (726, 4.98584181070327760000e-001) (727, 4.45093035697937010000e-001) (728, 5.33917963504791260000e-001) (729, 3.93231391906738280000e-001) (730, 4.05414044857025150000e-001) (731, 3.96063446998596190000e-001) (732, 4.49829339981079100000e-001) (733, 3.89441132545471190000e-001) (734, 4.33789312839508060000e-001) (735, 5.07431626319885250000e-001) (736, 5.23783147335052490000e-001) (737, 5.35150885581970210000e-001) (738, 3.95117402076721190000e-001) (739, 3.68878364562988280000e-001) (740, 5.40778279304504390000e-001) (741, 3.76907646656036380000e-001) (742, 3.70892524719238280000e-001) (743, 4.00488495826721190000e-001) (744, 4.21112298965454100000e-001) (745, 4.60553228855133060000e-001) (746, 4.49505865573883060000e-001) (747, 4.27136480808258060000e-001) (748, 3.55887174606323240000e-001) (749, 5.45584917068481450000e-001) (750, 5.10388672351837160000e-001) (751, 4.21216070652008060000e-001) (752, 5.13934910297393800000e-001) (753, 4.99133557081222530000e-001) (754, 4.30588126182556150000e-001) (755, 3.89786064624786380000e-001) (756, 5.44988751411437990000e-001) (757, 4.32051926851272580000e-001) (758, 4.28872019052505490000e-001) (759, 3.55785459280014040000e-001) (760, 4.17266160249710080000e-001) (761, 4.70791935920715330000e-001) (762, 4.60669159889221190000e-001) (763, 4.09707963466644290000e-001) (764, 5.18822968006134030000e-001) (765, 4.81589049100875850000e-001) (766, 3.74692082405090330000e-001) (767, 5.01916944980621340000e-001) (768, 4.11355912685394290000e-001) (769, 4.84844267368316650000e-001) (770, 5.28570294380187990000e-001) (771, 5.17486333847045900000e-001) (772, 5.21764874458312990000e-001) (773, 4.57413077354431150000e-001) (774, 5.00091910362243650000e-001) (775, 3.53888183832168580000e-001) (776, 3.71971935033798220000e-001) (777, 4.05364394187927250000e-001) (778, 4.71654683351516720000e-001) (779, 3.61568480730056760000e-001) (780, 5.15679657459259030000e-001) (781, 4.26421433687210080000e-001) (782, 3.84235918521881100000e-001) (783, 5.31023859977722170000e-001) (784, 3.89967143535614010000e-001) (785, 5.02589344978332520000e-001) (786, 4.33908760547637940000e-001) (787, 4.16113078594207760000e-001) (788, 4.59698259830474850000e-001) (789, 4.31840270757675170000e-001) (790, 4.24932658672332760000e-001) (791, 3.59435796737670900000e-001) (792, 3.87475371360778810000e-001) (793, 3.94382923841476440000e-001) (794, 4.42063659429550170000e-001) (795, 3.65051031112670900000e-001) (796, 4.81353551149368290000e-001) (797, 5.31004428863525390000e-001) (798, 5.24451553821563720000e-001) (799, 3.83591920137405400000e-001) (800, 3.48736882209777830000e-001) (801, 5.26276528835296630000e-001) (802, 3.74564856290817260000e-001) (803, 3.54968011379241940000e-001) (804, 3.82501542568206790000e-001) (805, 4.97668415307998660000e-001) (806, 5.15704572200775150000e-001) (807, 3.98462235927581790000e-001) (808, 3.96072894334793090000e-001) (809, 3.70702922344207760000e-001) (810, 3.52428972721099850000e-001) (811, 4.18091177940368650000e-001) (812, 4.52765226364135740000e-001) (813, 5.09649932384490970000e-001) (814, 3.52813482284545900000e-001) (815, 4.45733428001403810000e-001) (816, 4.61779594421386720000e-001) (817, 3.43169957399368290000e-001) (818, 3.35089355707168580000e-001) (819, 4.09728825092315670000e-001) (820, 4.25396293401718140000e-001) (821, 5.33030271530151370000e-001) (822, 3.28243315219879150000e-001) (823, 4.51934337615966800000e-001) (824, 4.23250138759613040000e-001) (825, 4.56794261932373050000e-001) (826, 4.94768857955932620000e-001) (827, 3.84496450424194340000e-001) (828, 4.04839456081390380000e-001) (829, 3.35958659648895260000e-001) (830, 4.42639857530593870000e-001) (831, 3.70191127061843870000e-001) (832, 4.56407964229583740000e-001) (833, 3.43958854675292970000e-001) (834, 3.14524710178375240000e-001) (835, 4.95704382658004760000e-001) (836, 7.19203650951385500000e-001) (837, 3.95216763019561770000e-001) (838, 4.16115283966064450000e-001) (839, 4.71950232982635500000e-001) (840, 4.06636357307434080000e-001) (841, 4.83008056879043580000e-001) (0, 4.16491925716400150000e-001) (1, 5.32544672489166260000e-001) (2, 4.98407214879989620000e-001) (3, 3.68048310279846190000e-001) (4, 4.23630118370056150000e-001) (5, 6.07100188732147220000e-001) (6, 8.31741839647293090000e-002) (7, 1.58208217471838000000e-002) (8, 9.84119698405265810000e-002) (9, 3.93428727984428410000e-002) (10, 5.77180624008178710000e-001) (11, -1.59130636602640150000e-002) (12, 2.78362661600112920000e-001) (13, 2.90580451488494870000e-001) (14, 3.89597177505493160000e-001) (15, 1.84188276529312130000e-001) (16, 3.79200607538223270000e-001) (17, 5.00196993350982670000e-001) (18, 3.43666374683380130000e-001) (19, 3.78578513860702510000e-001) (20, 6.09935224056243900000e-001) (21, 6.46004498004913330000e-001) (22, 3.25214862823486330000e-001) (23, 4.18266177177429200000e-001) (24, 2.81520098447799680000e-001) (25, 4.33500289916992190000e-001) (26, 4.28812742233276370000e-001) (27, 3.57285618782043460000e-001) (28, 3.99710416793823240000e-001) (29, 4.75186496973037720000e-001) (30, 3.80203545093536380000e-001) (31, 4.50412333011627200000e-001) (32, 4.45242643356323240000e-001) (33, 4.60666239261627200000e-001) (34, 4.65756535530090330000e-001) (35, 4.43179666996002200000e-001) (36, 3.92483830451965330000e-001) (37, 4.20853018760681150000e-001) (38, 4.43899869918823240000e-001) (39, 5.39243340492248540000e-001) (40, 3.92892777919769290000e-001) (41, 4.13577616214752200000e-001) (42, 5.04556834697723390000e-001) (43, 3.84680390357971190000e-001) (44, 3.96622002124786380000e-001) (45, 4.77164059877395630000e-001) (46, 3.72412323951721190000e-001) (47, 4.10351753234863280000e-001) (48, 3.84393513202667240000e-001) (49, 4.83740478754043580000e-001) (50, 3.66089105606079100000e-001) (51, 5.43415009975433350000e-001) (52, 5.41712164878845210000e-001) (53, 4.39755558967590330000e-001) (54, 4.61618363857269290000e-001) (55, 4.07849311828613280000e-001) (56, 4.46502923965454100000e-001) (57, 4.15866434574127200000e-001) (58, 5.07590293884277340000e-001) (59, 4.09942865371704100000e-001) (60, 4.31573748588562010000e-001) (61, 4.58630621433258060000e-001) (62, 5.29242634773254390000e-001) (63, 4.79120165109634400000e-001) (64, 3.93103241920471190000e-001) (65, 5.14130234718322750000e-001) (66, 4.00683820247650150000e-001) (67, 3.76385688781738280000e-001) (68, 4.90356653928756710000e-001) (69, 4.83709961175918580000e-001) (70, 4.22387957572937010000e-001) (71, 3.76587152481079100000e-001) (72, 5.23926496505737300000e-001) (73, 3.90289545059204100000e-001) (74, 5.51477789878845210000e-001) (75, 4.30694818496704100000e-001) (76, 4.67764616012573240000e-001) (77, 4.89322215318679810000e-001) (78, 4.99835491180419920000e-001) (79, 4.14526641368865970000e-001) (80, 3.78167927265167240000e-001) (81, 3.86645734310150150000e-001) (82, 4.95331019163131710000e-001) (83, 3.69922101497650150000e-001) (84, 4.35144305229187010000e-001) (85, 3.99725556373596190000e-001) (86, 4.37509477138519290000e-001) (87, 5.38852751255035400000e-001) (88, 5.01169264316558840000e-001) (89, 4.28100824356079100000e-001) (90, 5.20813822746276860000e-001) (91, 5.38501679897308350000e-001) (92, 5.10736584663391110000e-001) (93, 4.79724377393722530000e-001) (94, 5.30841767787933350000e-001) (95, 3.57837140560150150000e-001) (96, 4.72033917903900150000e-001) (97, 4.35180902481079100000e-001) (98, 4.48611795902252200000e-001) (99, 4.85562413930892940000e-001) (100, 5.29730916023254390000e-001) (101, 3.64105463027954100000e-001) (102, 5.26245832443237300000e-001) (103, 4.07995820045471190000e-001) (104, 4.66363787651062010000e-001) (105, 4.56085443496704100000e-001) (106, 4.65405523777008060000e-001) (107, 3.83123993873596190000e-001) (108, 4.49481427669525150000e-001) (109, 5.22223651409149170000e-001) (110, 3.97442817687988280000e-001) (111, 4.58780229091644290000e-001) (112, 3.57815861701965330000e-001) (113, 5.17710149288177490000e-001) (114, 4.92834657430648800000e-001) (115, 4.79516893625259400000e-001) (116, 4.09653067588806150000e-001) (117, 4.77518051862716670000e-001) (118, 4.50937211513519290000e-001) (119, 4.82376426458358760000e-001) (120, 3.84817838668823240000e-001) (121, 4.31650102138519290000e-001) (122, 4.62083011865615840000e-001) (123, 3.58256101608276370000e-001) (124, 4.08073008060455320000e-001) (125, 3.43288213014602660000e-001) (126, 4.89626109600067140000e-001) (127, 5.24509489536285400000e-001) (128, 4.24219012260437010000e-001) (129, 4.71258759498596190000e-001) (130, 3.53146672248840330000e-001) (131, 4.61764872074127200000e-001) (132, 5.41324675083160400000e-001) (133, 4.19906973838806150000e-001) (134, 5.31888604164123540000e-001) (135, 3.54227006435394290000e-001) (136, 4.69219505786895750000e-001) (137, 1.99177570343017580000e+001) (138, 5.03304243087768550000e-001) (139, 3.84163528680801390000e-001) (140, 3.98360282182693480000e-001) (141, 4.53352928161621090000e-001) (142, 4.92012590169906620000e-001) (143, 4.08658206462860110000e-001) (144, 4.30633783340454100000e-001) (145, 4.76983904838562010000e-001) (146, 4.62372064590454100000e-001) (147, 4.04922842979431150000e-001) (148, 5.11063277721405030000e-001) (149, 4.39590811729431150000e-001) (150, 5.06443023681640630000e-001) (151, 4.68802213668823240000e-001) (152, 4.32327628135681150000e-001) (153, 4.71878439188003540000e-001) (154, 4.17038321495056150000e-001) (155, 5.27555108070373540000e-001) (156, 4.45804178714752200000e-001) (157, 3.78268718719482420000e-001) (158, 5.09348094463348390000e-001) (159, 4.60306107997894290000e-001) (160, -2.04803237915039060000e+001) (161, 5.39084672927856450000e-001) (162, 3.96173298358917240000e-001) (163, 5.09344935417175290000e-001) (164, 3.80072236061096190000e-001) (165, 4.02200639247894290000e-001) (166, 4.83963340520858760000e-001) (167, 3.79269719123840330000e-001) (168, 4.54666495323181150000e-001) (169, 4.95212107896804810000e-001) (170, 4.21280264854431150000e-001) (171, 4.56112980842590330000e-001) (172, 5.44059038162231450000e-001) (173, 5.08267760276794430000e-001) (174, 4.15414750576019290000e-001) (175, 5.42984843254089360000e-001) (176, 3.68204057216644290000e-001) (177, 5.03824412822723390000e-001) (178, 4.57956254482269290000e-001) (179, 4.28103983402252200000e-001) (180, 3.73465299606323240000e-001) (181, 4.09689664840698240000e-001) (182, 4.70807135105133060000e-001) (183, 3.71753156185150150000e-001) (184, 4.96808201074600220000e-001) (185, 4.51437711715698240000e-001) (186, 4.03915703296661380000e-001) (187, 4.18344438076019290000e-001) (188, 5.34751176834106450000e-001) (189, 4.80563670396804810000e-001) (190, 5.35697221755981450000e-001) (191, 4.59677457809448240000e-001) (192, 4.18295621871948240000e-001) (193, 4.54581022262573240000e-001) (194, 3.97854924201965330000e-001) (195, 5.45926690101623540000e-001) (196, 4.65219438076019290000e-001) (197, 4.25357401371002200000e-001) (198, 4.65396463871002200000e-001) (199, 4.60373282432556150000e-001) (200, 4.00766313076019290000e-001) (201, 4.91824656724929810000e-001) (202, 5.17368376255035400000e-001) (203, 5.38230180740356450000e-001) (204, 5.02200782299041750000e-001) (205, 4.79474157094955440000e-001) (206, 4.47461187839508060000e-001) (207, 3.83813679218292240000e-001) (208, 4.90304857492446900000e-001) (209, 3.60794365406036380000e-001) (210, 5.07828354835510250000e-001) (211, 5.44278740882873540000e-001) (212, 4.43204045295715330000e-001) (213, 4.98807102441787720000e-001) (214, 4.43106412887573240000e-001) (215, 4.72134739160537720000e-001) (216, 5.13651192188262940000e-001) (217, 3.60226750373840330000e-001) (218, 5.36319792270660400000e-001) (219, 4.72952634096145630000e-001) (220, 5.31095147132873540000e-001) (221, 4.64181840419769290000e-001) (222, 5.07510960102081300000e-001) (223, 4.54306364059448240000e-001) (224, 4.37081009149551390000e-001) (225, 4.64253783226013180000e-001) (226, 3.37831705808639530000e-001) (227, 4.62311029434204100000e-001) (228, 4.64200139045715330000e-001) (229, 3.96978974342346190000e-001) (230, 4.27344024181365970000e-001) (231, 4.18030023574829100000e-001) (232, 3.58728259801864620000e-001) (233, 4.18075919151306150000e-001) (234, 